{"learner":{"attributes":{"scikit_learn":"{\"_estimator_type\": \"classifier\"}"},"feature_names":["pft_events_m7","n_resource_days_m4","pft_days_logged_m10","curso_mas_alto","cred_sup_4o","pft_assignment_submissions_m2","n_resource_days_m9","nota10_hash","pft_visits_m6","n_wifi_days_m9","cred_sup_1o","pft_test_submissions_m3","n_wifi_days_m4","n_resource_days_m8","cred_sup_total","cred_mat3","pft_visits_m4","cred_sup_6o","campus_hash","cred_sup_2o","resource_events_m10","pft_days_logged_m7","curso_mas_bajo","n_resource_days_m3","cred_mat4","anyo_inicio_estudios","pft_assignment_submissions_m4","n_resource_days_m1","nota_asig_hash","pft_visits_m9","cred_pend_sup_tit","n_wifi_days_m7","pft_test_submissions_m4","pft_events_m1","rendimiento_cuat_b","cred_mat_movilidad","pft_test_submissions_m1","cred_sup_5o","cred_mat_total","resource_events_m9","dedicacion","pft_events_m11","cred_ptes_acta","cred_mat_normal","tit_hash","resource_events_m7","pft_visits_m2","rendimiento_total","pft_test_submissions_m11","pft_events_m9","rend_total_penultimo","resource_events_m3","n_wifi_days_m10","cred_sup_espec","cred_mat_sem_a","pft_days_logged_m3","impagado_curso_mat","n_resource_days_m7","pft_assignment_submissions_m3","pft_events_m6","desplazado_hash","estudios_p_hash","cred_sup_sem_b","pft_test_submissions_m8","n_resource_days_m10","pft_total_minutes_m3","pft_visits_m5","pft_assignment_submissions_m9","pft_visits_m8","cred_sup_3o","es_adaptado","pft_test_submissions_m6","n_wifi_days_m11","pft_total_minutes_m1","pft_total_minutes_m4","pft_visits_m11","pft_assignment_submissions_m7","pft_test_submissions_m2","n_wifi_days_m1","pft_total_minutes_m10","cred_mat_anu","pft_assignment_submissions_m11","n_resource_days_m5","preferencia_seleccion","pract1","pft_events_m5","pft_test_submissions_m7","n_resource_days_m11","pft_visits_m1","resource_events_m5","n_wifi_days_m5","actividades","pft_days_logged_m5","n_wifi_days_m6","asig1","pft_test_submissions_m5","pft_events_m8","n_wifi_days_m3","cred_mat_sem_b","pft_assignment_submissions_m5","cred_mat6","pft_assignment_submissions_m1","n_resource_days_m6","pft_assignment_submissions_m10","pft_visits_m7","pft_visits_m10","resource_events_m11","pft_test_submissions_m9","cred_sup_tit","cred_sup","n_wifi_days_m2","resource_events_m8","pft_total_minutes_m9","pft_assignment_submissions_m8","activ1","rend_total_antepenultimo","pft_events_m2","cred_mat_practicas","pft_events_m4","pft_total_minutes_m8","resource_events_m2","pft_test_submissions_m10","pft_events_m3","n_wifi_days_m8","rend_total_ultimo","exento_npp","ajuste","tipo_ingreso","practicas","rendimiento_cuat_a","pft_total_minutes_m6","pft_days_logged_m1","resource_events_m6","pft_total_minutes_m7","nota14_hash","pft_days_logged_m6","cred_sup_sem_a","pft_total_minutes_m11","resource_events_m1","pft_events_m10","pft_assignment_submissions_m6","anyo_ingreso","pft_days_logged_m4","pft_total_minutes_m2","cred_mat1","n_resource_days_m2","pft_days_logged_m9","cred_mat5","cred_mat2","pft_total_minutes_m5","es_retitulado","pft_days_logged_m8","cred_sup_normal","estudios_m_hash","total1","cred_sup_anu","pft_days_logged_m2","pft_days_logged_m11","resource_events_m4","pft_visits_m3","cohort_year"],"feature_types":["float","float","float","int","float","float","float","float","float","float","float","float","float","float","float","float","float","int","c","float","float","float","int","float","float","int","float","float","float","float","float","float","float","float","float","float","float","float","float","float","c","float","float","float","c","float","float","float","float","float","float","float","float","float","float","float","float","float","float","float","c","c","float","float","float","float","float","float","float","float","float","float","float","float","float","float","float","float","float","float","float","float","float","float","float","float","float","float","float","float","float","float","float","float","float","float","float","float","float","float","int","float","float","float","float","float","float","float","float","float","float","float","float","float","float","float","float","float","float","float","float","float","float","float","float","float","float","c","float","float","float","float","float","float","float","float","float","float","float","float","float","float","float","float","float","float","float","float","float","float","float","float","float","c","float","float","float","float","float","float","int"],"gradient_booster":{"model":{"cats":{"enc":[{"offsets":[],"values":[]},{"offsets":[],"values":[]},{"offsets":[],"values":[]},{"offsets":[],"values":[]},{"offsets":[],"values":[]},{"offsets":[],"values":[]},{"offsets":[],"values":[]},{"offsets":[],"values":[]},{"offsets":[],"values":[]},{"offsets":[],"values":[]},{"offsets":[],"values":[]},{"offsets":[],"values":[]},{"offsets":[],"values":[]},{"offsets":[],"values":[]},{"offsets":[],"values":[]},{"offsets":[],"values":[]},{"offsets":[],"values":[]},{"offsets":[],"values":[]},{"offsets":[0,16,32,48,64,80,96,112,128,144,160,176,192,208,224,240,256,272,288,304,320,336,352,368,384,400,416,432,448,464,480,496,512,528,544,560,576,592,608,624,640],"values":[48,52,52,56,100,53,54,51,98,102,55,50,50,55,55,97,48,54,55,50,100,52,57,102,101,53,97,55,48,51,53,101,48,102,48,49,97,56,52,98,102,102,49,98,50,98,102,52,49,51,57,56,98,51,55,54,102,100,99,99,101,50,53,99,49,54,97,51,54,101,56,54,102,54,102,101,100,53,100,52,49,97,57,100,55,56,54,98,101,48,102,102,48,98,102,101,50,51,52,48,48,49,102,53,100,53,102,49,101,99,97,52,50,57,55,99,49,51,56,56,48,54,98,100,98,53,100,100,50,102,52,99,48,54,97,98,97,48,102,57,97,51,57,51,51,99,97,48,101,52,97,102,49,99,52,52,102,48,56,52,52,48,102,53,98,53,55,98,48,57,102,48,55,51,101,100,52,55,52,102,102,97,56,99,56,99,98,55,101,56,56,101,52,55,99,102,101,53,101,98,56,97,100,97,48,101,55,52,52,56,99,54,101,51,100,48,52,50,54,52,57,101,102,54,52,101,56,48,56,48,57,52,56,53,49,102,99,50,101,97,53,50,48,50,53,56,57,48,102,97,54,48,51,100,98,99,53,97,98,101,54,101,100,53,53,53,55,50,48,97,51,101,53,100,57,100,52,53,49,48,54,57,57,100,97,99,53,56,54,48,102,49,57,99,100,54,55,50,53,50,49,54,49,100,54,55,56,49,98,52,52,49,99,55,56,100,50,54,52,51,55,57,100,102,51,55,52,50,100,97,56,54,99,102,100,52,55,98,55,55,56,101,52,99,49,100,49,102,51,51,99,57,56,49,51,56,54,56,57,56,56,55,101,54,56,49,55,101,56,53,102,102,54,53,55,50,49,54,99,99,57,98,53,52,56,54,51,52,56,101,97,48,98,102,53,48,101,98,102,48,56,98,51,51,54,99,100,102,53,50,97,99,57,98,55,53,57,49,48,51,97,54,99,56,50,101,51,53,53,52,51,51,57,49,49,97,99,49,98,49,51,100,97,99,54,102,101,57,98,99,53,100,56,52,98,101,100,55,100,101,101,51,101,49,99,56,51,54,49,102,57,98,52,54,56,101,54,56,99,56,100,97,101,57,54,102,99,48,48,52,54,97,53,97,101,49,100,100,102,57,50,56,56,102,100,56,48,54,50,53,55,57,101,49,55,54,102,53,53,55,102,53,50,54,49,55,56,56,101,52,102,57,53,100,53,54,100,57,48,100,102,51,53,101,101,57,56,52,49,51,57,98,99,99,50,99,53,48,52,51,101,98,48,55,52,99,100,56,51,55,52,98,97,50,57,55,102,48,49,97,57,53,97,48,48,52,49,53,51,99,98,56,102,50,97,51,54,57,97,51,98,49,55,49,54,57,100,55,102,51,50,98,55,48,50,102,98,97,50,51,48,56,51,102,102,57,52,49,56,55,55,51,53,48,51,101,53,48,98,54]},{"offsets":[],"values":[]},{"offsets":[],"values":[]},{"offsets":[],"values":[]},{"offsets":[],"values":[]},{"offsets":[],"values":[]},{"offsets":[],"values":[]},{"offsets":[],"values":[]},{"offsets":[],"values":[]},{"offsets":[],"values":[]},{"offsets":[],"values":[]},{"offsets":[],"values":[]},{"offsets":[],"values":[]},{"offsets":[],"values":[]},{"offsets":[],"values":[]},{"offsets":[],"values":[]},{"offsets":[],"values":[]},{"offsets":[],"values":[]},{"offsets":[],"values":[]},{"offsets":[],"values":[]},{"offsets":[],"values":[]},{"offsets":[],"values":[]},{"offsets":[0,2,4],"values":[84,67,84,80]},{"offsets":[],"values":[]},{"offsets":[],"values":[]},{"offsets":[],"values":[]},{"offsets":[0,12,24,36,48,60,72,84,96,108,120,132,144,156,168,180,192,204,216,228,240,252,264,276,288,300,312,324,336,348,360,372,384,396,408,420,432,444,456,468,480,492,504,516,528,540,552,564,576,588,600,612,624,636,648,660,672,684,696,708,720,732,744,756,768,780,792,804,816,828,840,852,864,876,888,900,912,924,936,948,960,972,984,996,1008,1020,1032,1044,1056,1068,1080,1092,1104,1116,1128,1140,1152,1164,1176,1188,1200,1212,1224,1236,1248,1260,1272,1284,1296,1308,1320,1332,1344,1356,1368,1380,1392,1404,1416,1428,1440,1452,1464,1476,1488,1500,1512,1524,1536,1548,1560,1572,1584,1596,1608,1620,1632,1644,1656,1668,1680,1692,1704,1716,1728,1740,1752,1764,1776,1788,1800,1812,1824,1836],"values":[48,49,100,53,52,53,55,57,100,97,52,52,48,52,51,48,54,54,100,97,102,50,49,48,48,53,97,100,97,56,54,51,97,52,99,102,48,53,99,56,98,100,53,100,52,100,99,100,48,55,97,97,50,48,49,53,100,52,56,50,48,56,99,49,53,57,99,98,56,49,49,99,48,57,49,101,98,98,55,53,49,53,50,100,48,57,51,52,51,52,97,51,101,101,57,101,48,97,53,98,48,52,54,100,48,55,102,54,48,98,56,100,55,99,98,48,57,101,54,56,48,102,100,52,50,98,51,102,55,51,99,52,48,102,101,99,102,57,50,52,55,102,51,100,49,48,57,54,48,53,98,57,98,100,51,55,49,51,49,49,50,55,50,48,51,99,56,57,49,53,50,51,98,54,54,50,56,55,49,98,49,100,48,101,98,101,97,53,53,50,101,98,49,100,50,56,99,49,50,48,53,54,56,99,49,102,51,98,56,101,54,57,57,52,49,54,50,49,48,101,51,98,49,54,48,99,51,53,50,50,48,54,98,49,49,49,99,57,52,100,50,51,49,52,55,100,101,57,57,57,55,51,50,51,57,55,51,52,54,98,52,53,56,50,50,52,50,49,48,97,99,102,102,57,48,50,50,52,102,97,101,56,56,51,100,53,99,101,50,53,54,52,102,50,49,98,99,50,50,99,50,55,98,98,53,53,99,97,55,100,49,101,50,56,49,49,55,52,53,100,55,98,56,100,50,98,98,98,48,101,100,57,101,53,57,51,50,98,99,56,48,53,49,48,55,54,54,55,50,99,55,100,53,52,57,48,101,54,48,53,50,100,50,99,51,51,99,53,50,101,51,100,50,102,53,98,55,48,99,54,50,49,102,100,50,102,101,99,55,51,102,50,48,53,57,54,51,49,49,97,48,97,101,53,55,98,101,57,51,51,99,99,54,100,97,51,48,100,57,52,51,52,100,102,50,100,49,53,101,101,51,51,51,56,98,50,100,48,51,102,51,50,53,54,51,57,51,97,49,97,57,52,98,48,101,51,51,57,54,98,56,101,54,53,97,56,52,97,51,57,57,98,49,57,98,100,51,48,99,48,51,97,54,101,50,98,50,50,53,57,49,101,51,98,55,51,49,100,55,54,50,48,98,102,51,98,55,102,102,101,100,102,100,53,57,49,51,100,51,50,56,54,102,55,99,100,49,57,52,49,101,53,50,49,97,100,102,56,97,101,52,54,50,49,99,49,100,53,53,102,97,52,52,56,102,101,48,54,54,49,54,49,53,100,52,97,56,53,57,54,97,55,55,57,48,98,52,101,97,56,51,55,97,99,50,101,53,49,53,50,57,50,52,55,56,101,56,51,102,54,53,54,101,102,102,48,57,50,51,54,55,53,53,57,52,54,56,54,98,99,102,101,56,97,53,97,51,57,99,97,100,100,49,98,48,48,53,98,99,48,53,101,50,52,49,53,50,55,53,99,102,52,101,50,54,98,100,51,100,56,53,101,99,49,97,48,99,57,57,100,52,50,54,48,53,101,57,101,57,48,100,53,51,55,54,48,98,102,97,54,98,53,49,56,56,97,54,49,97,50,50,57,98,97,101,49,101,57,54,50,48,99,57,99,51,51,50,49,48,49,54,53,51,50,100,100,100,54,54,56,49,50,54,53,57,52,55,57,98,102,56,100,55,52,54,97,53,53,49,55,55,54,101,101,97,100,54,97,54,53,56,49,99,101,55,56,53,100,54,97,101,50,55,49,56,57,53,57,99,52,55,48,52,53,100,49,54,97,101,55,102,48,55,48,55,102,54,98,50,55,98,51,53,54,55,51,52,55,53,99,98,52,48,97,53,54,55,51,52,100,48,55,53,57,99,100,98,52,55,51,100,51,102,49,98,97,48,54,50,53,55,52,48,99,53,57,98,56,56,52,48,51,55,53,53,57,99,97,52,97,57,53,55,99,55,55,51,51,52,56,50,51,55,57,49,98,55,57,57,53,98,50,56,98,102,52,50,98,55,57,100,54,101,97,97,50,54,55,54,49,55,98,99,99,98,97,50,100,51,97,51,102,55,101,54,50,99,101,49,53,52,57,57,56,55,101,56,50,53,48,100,102,99,52,101,99,55,101,100,56,102,48,102,51,98,55,48,55,56,48,99,51,99,100,52,48,102,97,51,53,56,49,101,97,57,54,55,48,55,102,98,48,56,50,99,55,55,50,53,99,55,48,100,99,56,51,100,55,99,101,48,49,48,54,48,99,56,52,98,53,54,52,102,57,54,48,54,49,56,54,55,52,56,50,53,52,98,54,98,102,56,56,49,48,48,98,97,51,52,100,98,55,56,56,99,102,57,56,54,52,52,57,98,54,56,57,57,98,57,97,51,49,52,48,54,55,56,98,52,98,49,53,56,50,99,97,52,53,56,98,99,98,98,52,99,49,51,49,100,102,56,99,49,102,49,48,52,54,50,49,57,100,56,100,50,55,98,97,51,55,99,53,100,56,56,101,51,51,51,48,97,101,98,53,101,57,56,101,54,49,50,98,100,49,102,53,100,49,56,101,97,56,101,98,54,49,50,102,57,51,57,48,51,97,52,50,48,55,98,101,50,57,57,50,49,50,101,53,101,54,101,102,52,49,57,54,55,97,101,53,102,57,54,52,99,100,57,54,56,48,55,54,98,101,50,101,51,56,57,97,53,97,52,56,55,53,56,100,97,51,57,97,101,50,98,100,100,55,98,101,101,100,57,98,50,49,98,48,51,100,57,48,52,56,57,101,51,98,54,50,51,50,99,98,55,98,57,101,54,50,57,54,98,101,50,98,98,57,97,48,98,100,53,48,48,56,50,49,97,56,97,53,49,50,100,98,50,55,52,49,99,100,97,99,101,48,97,50,49,57,55,102,50,57,97,101,101,99,50,102,99,100,50,55,102,99,98,51,55,55,51,101,99,98,102,55,52,57,98,52,99,56,97,99,50,48,97,56,55,101,98,54,48,51,48,48,54,52,49,99,51,54,98,56,51,48,57,50,49,102,102,97,55,48,98,56,52,55,56,53,54,52,49,49,97,101,98,98,54,54,56,99,97,57,53,53,54,51,98,99,56,51,99,98,98,50,100,54,100,99,98,99,97,99,51,55,49,98,53,52,102,53,98,101,52,55,97,100,100,98,99,98,56,102,98,102,97,100,54,56,102,101,50,97,98,56,99,48,54,48,98,101,54,100,57,98,102,49,99,51,50,52,98,55,99,98,54,53,54,56,99,54,100,51,52,52,56,51,99,101,100,100,99,55,53,100,101,50,51,100,56,57,100,102,99,57,54,100,54,51,48,101,99,51,97,49,99,99,51,48,98,53,56,56,54,101,49,102,100,49,98,48,98,55,54,56,55,102,55,98,100,52,101,101,57,102,53,56,101,53,56,54,100,54,48,54,49,98,98,101,101,54,99,102,100,54,97,52,48,51,49,55,51,51,54,49,100,54,102,48,99,55,49,101,102,48,99,56,100,56,48,101,97,101,54,101,57,54,100,49,100,56,57,49,50,101,98,97,52,97,48,100,100,56,101,99,51,57,48,51,99,56,49,99,100,57,51,51,99,49,48,48,50,52,56,50,100,97,99,53,51,99,49,55,99,50,53,48,100,98,97,101,55,55,50,100,98,50,57,48,100,99,55,98,56,49,102,100,50,102,102,102,101,48,102,49,100,50,56,101,97,98,100,98,101,50,50,101,57,99,50,50,102,57,50,98,101,53,52,56,49,97,97,55,100,102,53,56,101,97,51,97,48,51,98,52,57,55,49,101,101,99,50,101,57,57,48,98,57,51,52,100,101,99,51,102,100,99,100,56,49,51,54,49,102,48,54,99,97,49,48,102,52,57,55,55,102,49,49,97,55,100,54,52,99,99,48,50,102,50,53,52,53,50,57,55,99,52,54,49,102,51,54,101,50,55,57,52,52,55,50,99,102,51,99,51,57,100,48,54,52,50,102,52,102,53,55,101,53,99,98,49,102,52,53,51,102,55,50,101,99,52,57,48,99,53,49,54,102,56,56,48,57,97,102,102,52,100,54,57,102,97,54,54,100,102,50,102,57,57,99,101,102,99,53,49,48,49,97,55,102,53,53,100,102,102,50,99,99,98,54,98,97,52,50,51]},{"offsets":[],"values":[]},{"offsets":[],"values":[]},{"offsets":[],"values":[]},{"offsets":[],"values":[]},{"offsets":[],"values":[]},{"offsets":[],"values":[]},{"offsets":[],"values":[]},{"offsets":[],"values":[]},{"offsets":[],"values":[]},{"offsets":[],"values":[]},{"offsets":[],"values":[]},{"offsets":[],"values":[]},{"offsets":[],"values":[]},{"offsets":[],"values":[]},{"offsets":[],"values":[]},{"offsets":[0,1,2],"values":[65,66]},{"offsets":[0,1,2,3,4,5,6],"values":[70,76,77,80,82,84]},{"offsets":[],"values":[]},{"offsets":[],"values":[]},{"offsets":[],"values":[]},{"offsets":[],"values":[]},{"offsets":[],"values":[]},{"offsets":[],"values":[]},{"offsets":[],"values":[]},{"offsets":[],"values":[]},{"offsets":[],"values":[]},{"offsets":[],"values":[]},{"offsets":[],"values":[]},{"offsets":[],"values":[]},{"offsets":[],"values":[]},{"offsets":[],"values":[]},{"offsets":[],"values":[]},{"offsets":[],"values":[]},{"offsets":[],"values":[]},{"offsets":[],"values":[]},{"offsets":[],"values":[]},{"offsets":[],"values":[]},{"offsets":[],"values":[]},{"offsets":[],"values":[]},{"offsets":[],"values":[]},{"offsets":[],"values":[]},{"offsets":[],"values":[]},{"offsets":[],"values":[]},{"offsets":[],"values":[]},{"offsets":[],"values":[]},{"offsets":[],"values":[]},{"offsets":[],"values":[]},{"offsets":[],"values":[]},{"offsets":[],"values":[]},{"offsets":[],"values":[]},{"offsets":[],"values":[]},{"offsets":[],"values":[]},{"offsets":[],"values":[]},{"offsets":[],"values":[]},{"offsets":[],"values":[]},{"offsets":[],"values":[]},{"offsets":[],"values":[]},{"offsets":[],"values":[]},{"offsets":[],"values":[]},{"offsets":[],"values":[]},{"offsets":[],"values":[]},{"offsets":[],"values":[]},{"offsets":[],"values":[]},{"offsets":[],"values":[]},{"offsets":[],"values":[]},{"offsets":[],"values":[]},{"offsets":[],"values":[]},{"offsets":[],"values":[]},{"offsets":[],"values":[]},{"offsets":[],"values":[]},{"offsets":[],"values":[]},{"offsets":[],"values":[]},{"offsets":[],"values":[]},{"offsets":[],"values":[]},{"offsets":[],"values":[]},{"offsets":[],"values":[]},{"offsets":[],"values":[]},{"offsets":[],"values":[]},{"offsets":[],"values":[]},{"offsets":[],"values":[]},{"offsets":[],"values":[]},{"offsets":[],"values":[]},{"offsets":[0,3,6,9,12,15,18,21,24,27,30,33,36,39,42,45],"values":[65,78,84,65,83,65,66,77,65,78,65,68,78,65,73,78,65,80,78,67,65,78,67,70,78,73,69,78,76,69,78,82,79,78,83,65,78,83,67,78,84,69,78,85,69]},{"offsets":[],"values":[]},{"offsets":[],"values":[]},{"offsets":[],"values":[]},{"offsets":[],"values":[]},{"offsets":[],"values":[]},{"offsets":[],"values":[]},{"offsets":[],"values":[]},{"offsets":[],"values":[]},{"offsets":[],"values":[]},{"offsets":[],"values":[]},{"offsets":[],"values":[]},{"offsets":[],"values":[]},{"offsets":[],"values":[]},{"offsets":[],"values":[]},{"offsets":[],"values":[]},{"offsets":[],"values":[]},{"offsets":[],"values":[]},{"offsets":[],"values":[]},{"offsets":[],"values":[]},{"offsets":[],"values":[]},{"offsets":[],"values":[]},{"offsets":[],"values":[]},{"offsets":[],"values":[]},{"offsets":[],"values":[]},{"offsets":[],"values":[]},{"offsets":[0,1,2,3,4,5,6],"values":[70,76,77,80,82,84]},{"offsets":[],"values":[]},{"offsets":[],"values":[]},{"offsets":[],"values":[]},{"offsets":[],"values":[]},{"offsets":[],"values":[]},{"offsets":[],"values":[]},{"offsets":[],"values":[]}],"feature_segments":[0,0,0,0,0,0,0,0,0,0,0,0,0,0,0,0,0,0,0,40,40,40,40,40,40,40,40,40,40,40,40,40,40,40,40,40,40,40,40,40,40,42,42,42,42,195,195,195,195,195,195,195,195,195,195,195,195,195,195,195,195,197,203,203,203,203,203,203,203,203,203,203,203,203,203,203,203,203,203,203,203,203,203,203,203,203,203,203,203,203,203,203,203,203,203,203,203,203,203,203,203,203,203,203,203,203,203,203,203,203,203,203,203,203,203,203,203,203,203,203,203,203,203,203,203,203,203,203,218,218,218,218,218,218,218,218,218,218,218,218,218,218,218,218,218,218,218,218,218,218,218,218,218,218,224,224,224,224,224,224,224,224],"sorted_idx":[0,1,2,3,4,5,6,7,8,9,10,11,12,13,14,15,16,17,18,19,20,21,22,23,24,25,26,27,28,29,30,31,32,33,34,35,36,37,38,39,0,1,0,1,2,3,4,5,6,7,8,9,10,11,12,13,14,15,16,17,18,19,20,21,22,23,24,25,26,27,28,29,30,31,32,33,34,35,36,37,38,39,40,41,42,43,44,45,46,47,48,49,50,51,52,53,54,55,56,57,58,59,60,61,62,63,64,65,66,67,68,69,70,71,72,73,74,75,76,77,78,79,80,81,82,83,84,85,86,87,88,89,90,91,92,93,94,95,96,97,98,99,100,101,102,103,104,105,106,107,108,109,110,111,112,113,114,115,116,117,118,119,120,121,122,123,124,125,126,127,128,129,130,131,132,133,134,135,136,137,138,139,140,141,142,143,144,145,146,147,148,149,150,151,152,0,1,0,1,2,3,4,5,0,1,2,3,4,5,6,7,8,9,10,11,12,13,14,0,1,2,3,4,5]},"gbtree_model_param":{"num_parallel_tree":"1","num_trees":"150"},"iteration_indptr":[0,1,2,3,4,5,6,7,8,9,10,11,12,13,14,15,16,17,18,19,20,21,22,23,24,25,26,27,28,29,30,31,32,33,34,35,36,37,38,39,40,41,42,43,44,45,46,47,48,49,50,51,52,53,54,55,56,57,58,59,60,61,62,63,64,65,66,67,68,69,70,71,72,73,74,75,76,77,78,79,80,81,82,83,84,85,86,87,88,89,90,91,92,93,94,95,96,97,98,99,100,101,102,103,104,105,106,107,108,109,110,111,112,113,114,115,116,117,118,119,120,121,122,123,124,125,126,127,128,129,130,131,132,133,134,135,136,137,138,139,140,141,142,143,144,145,146,147,148,149,150],"tree_info":[0,0,0,0,0,0,0,0,0,0,0,0,0,0,0,0,0,0,0,0,0,0,0,0,0,0,0,0,0,0,0,0,0,0,0,0,0,0,0,0,0,0,0,0,0,0,0,0,0,0,0,0,0,0,0,0,0,0,0,0,0,0,0,0,0,0,0,0,0,0,0,0,0,0,0,0,0,0,0,0,0,0,0,0,0,0,0,0,0,0,0,0,0,0,0,0,0,0,0,0,0,0,0,0,0,0,0,0,0,0,0,0,0,0,0,0,0,0,0,0,0,0,0,0,0,0,0,0,0,0,0,0,0,0,0,0,0,0,0,0,0,0,0,0,0,0,0,0,0,0],"trees":[{"base_weights":[-1.9571377E-8,9.0893275E-1,-7.544386E-1,-9.549447E-1,1.1472198E0,1.498097E0,-1.1802083E0,1.134774E0,-1.9530056E0,1.7158512E0,6.593289E-1,1.7039455E0,6.8489033E-1,-6.1630493E-1,-1.5319122E0,1.7483989E0,-4.7466168E-1,3.5876742E-1,-3.9992046E-1,1.3896948E0,1.8209159E0,1.0666804E0,-4.170791E-1,8.114689E-1,1.8262835E0,1.1382585E0,-5.6619835E-1,-2.2041136E-1,-1.2063E0,-8.1691563E-1,-1.6957738E0,1.7936454E0,-3.8181818E-1,-1.673443E0,6.392191E-1,1.4176215E0,-1.7169918E0,1.861485E0,1.3828113E0,1.3482076E0,1.8190096E-1,5.3707134E-2,-1.2312932E0,1.843654E0,-3.9878696E-1,1.855896E0,3.9398383E-2,1.2391758E0,-3.9330545E-1,5.6765413E-1,-3.9867988E-1,4.6470398E-1,-5.6513274E-1,-6.1116636E-1,-1.5970143E0,1.3578669E0,-1.2782272E0,-1.2750189E0,-1.857348E0,1.9080367E0,1.3659124E0,-1.8032366E0,2.9528832E-1,-1.7006277E0,1.0845907E0,1.677666E0,1.1873289E0,-3.925926E-1,1.2121904E-1,1.8880093E0,1.3069687E0,1.5518857E0,-1.6574796E0,1.5659355E0,8.262428E-1,6.480784E-1,-5.255123E-1,4.1527063E-1,-7.215014E-1,1.3932103E-1,-1.726646E0,1.9091374E0,-3.75E-1,-3.858407E-1,1.8679123E0,-3.9405206E-1,1.7254586E0,1.3364214E0,-3.9262673E-1,1.2906026E0,-1.6629505E0,7.370363E-1,-4.610883E-1,-6.0127452E-2,-1.5014837E0,-1.3307611E0,8.312768E-2,-1.7452931E0,-6.371468E-1,-9.834782E-1,1.5818785E0,-8.068362E-1,-1.9593899E0,-1.0474677E0,-1.9488686E0,-1.3100809E0,-1.9097704E0,-7.028016E-2,1.9235803E0,1.49674E0,-7.372873E-2,-1.8959327E0,3.524566E-1,1.4221331E-1,-3.9215687E-1,1.6086735E0,-6.495613E-2,1.7267357E0,1.0077001E0,1.5061045E0,6.52503E-1,1.893369E0,-7.478414E-1,1.415063E0,1.7161803E-1,1.5997784E0,-3.826087E-1,-3.947541E-1,-1.5575455E-1,1.8166395E0,1.319535E0,1.3896041E0,4.146714E-1,-3.9825138E-1,8.416502E-1,-3.713808E-2,-3.9927173E-1,6.506192E-1,-7.900128E-1,-2.0115463E-1,-1.4353606E0,6.1698246E-1,-3.9742765E-1,-7.1337867E-1,-1.8954687E0,1.9404659E0,-3.5E-1,1.8771127E0,-3.816092E-1,3.9467618E-1,-3.3333334E-1,1.5422832E0,7.5916034E-1,1.5451624E0,-3.816092E-1,-3.9537573E-1,3.524566E-1,8.4778476E-1,-1.8959429E0,2.8728953E-1,-1.247422E0,-8.57847E-1,3.4067467E-1,-4.866079E-1,-1.8065624E0,-4.2062658E-1,-1.8697764E0,6.7966294E-1,-9.4023275E-1,1.5719337E0,-1.7942787E0,-1.33254295E-2,-3.9848772E-1,3.3875075E-1,-3.9540228E-1,1.6499025E0,-3.8333333E-1,-9.685789E-1,4.475236E-1,-1.413749E0,-3.9983508E-1,-1.4161171E0,9.828739E-3,-3.9982828E-1,3.869509E-1,-4.6988198E-1,-1.7719915E0,-1.9248922E0,-6.6457313E-1,3.8724974E-1,9.024338E-2,3.460238E-1,2.209606E-1,2.4274032E-1,-3.709091E-1,-3.8871473E-1,8.375728E-2,3.6056924E-1,-1.7869298E-1,2.0244494E-1,-3.8832116E-1,3.466484E-1,-3.3333334E-1,2.5632724E-1,-3.7866667E-1,3.0788097E-1,-1.883658E-1,-1.2803987E-1,1.9237635E-1,-3.7142858E-1,3.7923965E-1,-3.846154E-1,3.6699682E-1,2.878231E-1,-3.3846155E-1,-3.886525E-1,3.9042458E-1,3.368735E-1,-5.8576297E-2,2.5512293E-1,-3.529412E-1,3.6496034E-1,-3.7142858E-1,2.9419675E-1,1.3660268E-1,-3.888112E-1,2.8897533E-1,-2.7389285E-1,1.1406175E-1,2.6144585E-1,3.262011E-2,7.1018234E-2,-1.663266E-1,1.4934133E-1,-3.963964E-1,-3.088766E-1,1.8605326E-1,2.9613018E-2,-3.9759037E-1,-1.1245324E-1,-3.9268336E-1,1.7732827E-1,-3.1660637E-1,2.3130892E-1,-2.3399244E-1,-3.9078295E-1,3.5023865E-1,3.9263055E-1,-3.3333334E-1,3.7608978E-1,-3.529412E-1,3.182144E-1,-3.7866667E-1,2.4438179E-1,-3.941392E-1,3.4807804E-1,-3.7333333E-1,1.7910093E-1,-3.9377433E-1,5.1319446E-2,-3.974235E-1,2.3156826E-1,-2.0274515E-1,-3.480413E-1,-8.827325E-3,-1.1613989E-1,-3.490212E-1,-5.539685E-3,2.3577516E-1,1.990664E-1,-2.6994795E-1,-1.7089032E-1,-3.9982632E-1,-3.0910906E-1,3.84365E-2,-3.9967367E-1,3.6745965E-1,-3.95E-1,1.6996287E-1,-8.656342E-2,-3.984048E-1,3.9439988E-1,-3.5555556E-1,-3.6574244E-1,3.4634668E-1,-2.0496285E-1,2.0331602E-1,3.3790123E-1,-3.7142858E-1,-2.1752965E-1,5.0944205E-2,2.005308E-1,-1.834859E-1,-3.9700374E-1,4.1268878E-2,-1.9937514E-1,-3.8582897E-1,8.873465E-2,-3.6459592E-1,-2.7133343E-1,2.2511218E-1,-3.840013E-1,3.9243767E-1,1.6555242E-1,-3.8603327E-1,2.5682867E-1,-3.975E-1],"categories":[0,1,2,3,6,7,8,9,10,11,12,14,15,16,17,18,19,20,21,22,23,24,25,26,27,29,30,31,32,33,34,35,36,37,38,40,41,43,44,47,48,50,51,52,53,54,55,56,57,58,59,60,61,62,63,64,65,66,67,68,69,70,71,72,73,74,75,76,77,78,79,81,82,85,86,87,88,90,91,92,93,94,95,96,97,98,99,100,102,103,104,105,106,107,108,109,110,111,112,113,114,115,116,117,118,119,120,121,123,125,126,127,128,131,132,133,134,136,137,138,139,140,141,143,144,145,146,147,148,149,150,151,152,0,1,2,3,4,5,6,7,8,9,10,11,12,13,14,15,16,17,18,19,20,21,22,23,24,25,26,27,28,29,30,31,32,33,34,35,36,37,38,39,40,41,43,44,45,46,47,48,49,50,51,52,53,54,55,56,57,58,59,60,61,62,63,64,65,66,67,68,69,70,71,72,73,74,75,76,77,78,79,80,81,82,83,84,85,86,87,88,90,91,92,93,94,95,96,97,98,99,100,102,103,104,105,106,107,108,109,110,111,112,113,114,115,116,117,118,119,120,121,122,123,124,125,126,127,128,131,132,133,134,136,137,138,139,140,141,142,143,144,145,146,147,148,149,150,151,152,0,1,2,3,7,8,9,11,14,15,18,19,20,21,23,24,26,30,33,35,37,38,43,44,50,53,54,58,60,62,64,65,71,72,73,76,78,79,88,93,99,100,103,105,108,112,113,114,115,117,121,123,125,127,132,133,134,138,139,147,151,0,1,4,5,7,9,10,11,12,13,14,16,17,18,20,22,23,24,25,26,27,28,30,31,32,33,35,36,37,39,40,42,44,45,46,47,48,49,51,52,54,55,56,58,59,60,61,62,63,64,65,66,68,69,70,71,72,73,74,75,76,78,82,83,85,86,87,89,91,92,93,94,98,99,101,102,105,106,107,109,111,112,113,115,116,118,119,120,121,122,123,125,127,128,129,130,131,133,134,135,136,137,138,141,142,143,146,147,148,149,150,151,152,1,2,3,4,5,6,7,10,11,14,16,17,18,19,21,22,23,24,25,26,27,29,30,31,32,33,35,37,38,39,42,46,47,48,49,51,56,57,58,61,63,66,67,68,69,72,73,75,78,79,80,81,83,85,86,87,90,91,92,93,94,95,98,103,105,106,107,108,109,112,117,120,121,123,124,127,129,131,134,135,136,137,138,140,141,142,146,148,150,151,152,0,1,2,3,4,5,6,7,8,9,10,11,12,13,14,15,16,17,18,19,20,21,22,23,24,25,26,27,28,29,30,31,32,33,34,35,36,37,38,39,40,41,43,44,45,46,47,48,49,50,51,52,53,54,55,56,57,58,59,60,61,62,63,64,65,66,67,68,69,70,71,72,73,74,75,76,77,78,79,80,81,82,83,84,85,86,87,88,90,91,92,93,94,95,96,97,98,99,100,102,103,104,105,106,107,108,109,110,111,112,113,114,115,116,117,118,119,120,121,122,123,124,125,126,127,128,130,131,132,133,134,135,136,137,138,139,140,141,142,143,144,145,146,147,148,149,150,151,152,13,49,83,84,142,0,1,3,4,5,7,9,10,11,12,13,14,16,17,18,19,20,22,23,24,25,26,27,28,29,30,31,32,33,34,35,36,37,39,40,42,43,44,45,46,47,48,49,51,52,53,54,55,56,57,58,59,60,61,62,63,64,65,66,68,69,70,71,72,73,74,75,76,78,80,82,83,84,85,86,87,88,89,91,92,93,94,96,98,99,101,102,105,106,107,108,109,111,112,113,115,116,117,118,119,120,121,122,123,124,125,127,128,129,130,131,133,134,135,136,137,138,139,141,142,143,146,147,148,149,150,151,152,0,2,3,4,5,6,7,8,9,10,11,12,13,14,15,17,19,20,21,22,23,24,25,26,27,28,30,31,32,33,34,35,36,37,38,39,40,41,42,44,45,46,48,49,50,51,52,53,54,55,56,57,60,61,62,63,64,66,67,68,69,70,71,72,73,74,75,76,77,79,80,81,82,83,84,85,86,87,88,89,90,91,92,94,95,96,97,98,99,101,102,103,104,105,106,107,108,109,110,111,112,114,115,117,118,119,120,122,123,124,126,127,129,130,131,132,135,136,137,138,139,141,142,143,144,145,146,148,149,150,151,152,3,10,11,12,16,17,19,20,21,23,24,25,27,29,32,33,34,35,37,38,40,42,50,51,54,60,62,63,64,65,66,67,69,72,75,77,81,83,85,87,90,91,93,95,96,97,106,107,109,111,114,118,119,121,131,134,137,138,139,141,144,150,152,1,2,3,4,6,7,8,9,10,12,14,16,17,19,20,21,22,23,24,25,27,28,29,30,31,32,33,34,35,37,38,39,40,43,44,45,46,47,48,49,50,51,52,53,54,55,57,58,59,60,61,62,63,64,66,67,69,71,72,73,75,76,78,80,81,82,83,84,85,86,87,88,90,91,92,93,94,95,96,97,98,99,102,103,104,105,106,107,109,111,112,114,115,116,117,119,120,121,122,123,125,129,130,131,132,133,134,135,136,137,138,139,141,142,143,146,148,149,150,151,152,2,3,4,5,6,7,8,9,10,12,13,14,15,16,17,18,19,20,21,22,23,24,25,27,28,30,31,32,33,34,35,36,37,38,39,40,41,42,44,45,46,47,48,49,50,51,52,53,54,56,57,58,60,61,62,63,64,66,67,68,69,70,71,72,73,75,76,77,79,80,81,82,83,84,85,86,87,88,89,90,91,92,94,95,96,97,98,99,100,101,102,103,104,105,106,107,108,109,110,111,112,114,115,117,118,119,120,122,123,124,126,127,129,130,131,132,133,135,136,137,138,139,141,142,144,145,146,147,148,149,150,151,152,0,1,8,11,15,18,21,26,36,43,47,53,59,65,68,74,76,78,79,91,93,100,105,113,116,121,126,127,133,134,140,147,152,0,1,2,3,4,5,7,8,9,10,11,12,13,14,15,16,17,18,19,20,21,22,23,24,25,26,27,28,30,31,32,33,35,37,38,39,42,43,44,45,46,47,48,49,50,51,52,53,54,57,58,59,60,62,63,64,65,66,67,68,69,71,72,73,74,76,78,79,80,82,83,84,85,87,88,89,90,91,93,94,95,97,98,99,100,101,103,104,105,106,107,108,109,111,112,113,114,115,116,117,118,119,120,121,122,123,124,125,127,128,129,130,131,132,133,134,135,136,137,138,139,140,141,142,144,147,148,150,151,152,6,29,40,41,47,56,61,63,70,77,81,86,92,96,102,107,110,140,143,145,146,149,150,7,9,11,14,18,19,20,23,24,26,33,35,37,38,50,53,54,58,60,62,64,65,73,76,88,93,99,103,105,108,114,115,117,123,132,139,151,0,2,3,4,5,0,1,2,3,4,5,6,7,10,11,12,13,14,15,16,17,18,19,21,22,23,24,25,26,27,28,29,30,31,32,33,34,35,36,37,38,39,41,42,43,44,46,47,48,49,50,51,55,56,57,58,60,61,63,64,66,67,68,69,70,72,73,74,75,76,78,79,80,81,83,84,85,86,87,90,91,92,93,94,95,96,97,98,103,104,105,106,107,108,109,112,113,115,117,120,121,122,123,124,126,127,128,129,130,131,133,134,135,136,137,138,140,141,142,143,144,146,147,148,150,151,152,0,1,2,3,4,5,6,7,8,10,11,12,13,14,15,16,17,18,19,20,21,22,23,24,25,26,27,28,29,30,31,32,33,34,35,37,38,39,40,41,42,43,45,46,47,48,49,50,51,52,54,56,57,58,60,61,62,63,64,65,66,67,68,69,71,72,73,74,75,77,78,79,80,81,82,83,84,85,86,87,88,90,91,92,93,94,95,96,97,98,99,100,102,103,105,106,107,108,109,111,112,113,114,115,116,117,119,120,121,122,123,124,125,126,127,128,129,131,132,133,134,135,136,137,138,139,140,141,142,143,144,146,147,148,150,151,152,3,5,6,7,14,18,19,33,35,48,49,56,58,61,80,81,86,98,103,105,108,117,124,138,146,2,5,9,13,0,1,2,4,29,36,47,59,74,116,126,140,0,1,2,3,4,5,6,7,8,9,10,11,12,13,14,15,16,17,18,19,20,21,22,23,24,25,26,27,28,30,31,32,33,34,35,36,37,38,39,40,41,42,43,44,45,46,48,49,50,51,52,53,54,55,56,57,58,59,60,61,62,63,64,65,66,67,68,69,70,71,72,73,74,75,76,77,78,79,80,81,82,83,84,85,86,87,88,89,90,91,92,93,94,95,96,97,98,99,100,101,102,103,104,105,106,107,108,109,110,111,112,113,114,115,116,117,118,119,120,121,122,123,124,125,126,127,129,130,131,132,133,134,135,136,137,138,139,141,142,143,144,145,146,147,148,149,150,151,152,7,9,11,14,18,19,20,23,24,26,33,35,37,38,50,53,54,60,62,64,65,73,76,88,93,99,103,105,108,114,115,117,123,132,139,151,0,1,2,3,4,5,6,7,8,9,10,11,12,13,14,15,16,17,18,19,20,21,22,23,24,25,26,27,28,29,30,31,32,33,34,35,36,37,38,39,40,41,42,43,44,45,46,47,48,49,50,51,52,54,55,56,57,58,59,60,61,62,63,64,65,66,67,68,69,70,71,72,73,74,75,76,77,78,79,80,81,82,83,84,85,86,87,88,89,90,91,92,93,94,95,96,97,98,99,100,101,102,103,104,105,106,107,108,109,110,111,112,113,114,115,116,0,1,3,4,8,9,10,11,12,14,0,1,2,3,4,6,8,9,10,12,13,15,16,17,19,20,21,22,24,25,27,28,29,30,31,32,33,34,35,36,37,38,39,40,41,42,43,44,45,46,48,49,50,51,52,53,54,55,57,59,60,61,62,63,64,65,66,67,69,70,71,72,73,74,75,76,77,78,79,80,81,82,83,84,85,86,87,88,89,90,91,92,93,94,95,96,97,99,100,101,102,104,106,108,109,110,111,112,113,114,115,116,118,119,120,121,122,123,125,126,128,129,130,131,132,133,134,135,136,137,139,140,141,142,143,144,145,146,147,148,149,150,151,152,0,1,2,3,4,5,6,7,8,9,10,11,12,13,14,15,16,17,18,19,20,21,22,23,24,25,26,27,28,29,30,31,32,33,34,35,36,37,38,39,40,41,42,43,44,45,46,47,48,49,50,51,52,53,54,55,56,57,58,59,60,61,62,63,64,65,66,67,69,70,71,72,73,74,75,76,77,78,79,80,81,82,83,84,85,86,87,88,89,90,91,92,93,94,95,96,97,98,99,100,101,102,103,104,105,106,107,108,109,110,111,112,113,114,115,116,117,118,119,120,121,122,123,124,125,126,127,128,129,130,131,132,133,134,135,136,137,138,139,141,142,143,144,145,146,147,148,149,150,151,152,0,1,2,3,4,6,7,8,9,10,11,12,13,14,15,16,17,18,19,20,21,22,23,24,25,26,27,28,29,30,31,32,33,34,35,36,37,38,40,41,42,43,44,45,46,47,48,49,50,51,52,53,54,55,56,57,58,59,60,61,62,63,64,65,66,67,68,69,70,71,72,73,74,75,76,77,78,79,80,81,82,84,85,86,87,88,89,90,91,92,93,94,95,96,97,98,99,100,101,102,103,104,105,106,107,108,109,110,111,112,113,114,115,116,117,118,119,120,121,122,123,125,126,127,128,129,130,131,132,133,134,135,136,137,138,139,140,141,143,144,145,146,147,148,149,150,151,152,36,52,59,68,74,0,1,2,3,4,5,6,7,8,9,10,11,12,13,14,15,16,17,18,19,20,21,22,23,24,25,26,27,28,29,30,31,32,33,34,35,36,37,38,39,40,41,42,43,44,45,46,47,48,49,50,51,52,53,54,55,56,57,58,59,60,61,62,63,64,65,66,67,68,69,71,72,73,74,75,76,77,78,79,80,81,82,83,84,85,86,87,88,89,90,91,92,93,94,95,96,97,98,99,100,101,102,103,104,105,106,107,108,109,110,111,112,113,114,115,116,117,118,119,120,121,122,123,124,125,126,127,128,129,130,131,132,133,134,135,136,137,138,139,140,141,142,143,144,145,146,147,148,151,152,6,40,41,47,56,61,70,77,81,86,92,96,102,110,140,143,145,146,149,150,0,2,3,4,5,0,1,2,3,4,6,8,9,10,0,1,2,3,4,5,6,7,8,9,10,11,12,13,14,15,16,17,18,19,20,21,22,23,24,25,26,27,28,29,30,31,32,33,34,35,36,37,38,39,40,41,42,44,45,46,47,48,49,50,51,52,53,54,55,56,57,58,59,60,61,62,63,64,65,66,67,68,69,70,72,73,74,75,76,77,78,79,80,81,82,83,84,85,86,87,88,89,90,91,92,93,94,95,96,97,98,99,100,101,102,103,104,105,106,107,108,109,110,111,112,113,114,115,116,117,118,119,120,121,122,123,124,126,127,128,129,130,131,132,134,135,136,137,138,139,140,141,142,143,144,145,146,148,149,150,151,152,1,11,14,18,21,26,44,53,54,58,78,79,105,112,113,115,125,127,133,147,0,8,18,26,58,78,100,121,147],"categories_nodes":[2,5,6,7,21,24,26,31,35,37,38,41,42,51,52,56,64,73,74,76,80,94,95,96,102,110,125,134,143,152,161,163,164,169,175,178,181,182],"categories_segments":[0,133,280,341,454,545,694,699,827,959,1022,1143,1276,1309,1439,1462,1499,1504,1626,1763,1788,1792,1796,1804,1953,1989,2105,2115,2249,2400,2548,2553,2703,2723,2728,2737,2885,2905],"categories_sizes":[133,147,61,113,91,149,5,128,132,63,121,133,33,130,23,37,5,122,137,25,4,4,8,149,36,116,10,134,151,148,5,150,20,5,9,148,20,9],"default_left":[0,0,0,0,0,0,1,0,0,0,0,0,0,0,0,0,0,0,0,0,0,0,0,0,0,0,1,0,0,0,0,0,0,0,0,0,0,1,0,0,0,0,1,0,0,0,0,0,0,0,0,0,1,0,0,0,1,0,0,0,0,0,0,0,0,1,0,0,0,0,0,0,0,0,0,0,1,0,0,0,0,0,0,0,0,0,0,0,0,0,1,0,0,0,0,1,0,0,0,0,0,1,1,0,0,0,0,0,1,0,0,1,0,0,0,1,0,0,0,0,0,0,0,1,0,1,0,0,0,0,0,0,0,0,0,0,0,0,0,0,0,1,0,0,0,0,0,0,0,0,0,0,0,0,0,0,0,0,0,0,1,1,1,0,1,0,0,0,0,1,0,0,0,0,0,1,0,1,0,0,0,1,1,0,0,0,0,0,0,0,0,0,0,0,0,0,0,0,0,0,0,0,0,0,0,0,0,0,0,0,0,0,0,0,0,0,0,0,0,0,0,0,0,0,0,0,0,0,0,0,0,0,0,0,0,0,0,0,0,0,0,0,0,0,0,0,0,0,0,0,0,0,0,0,0,0,0,0,0,0,0,0,0,0,0,0,0,0,0,0,0,0,0,0,0,0,0,0,0,0,0,0,0,0,0,0,0,0,0,0,0,0,0,0,0,0,0,0,0,0,0,0,0,0,0,0,0],"id":0,"left_children":[1,3,5,7,9,11,13,15,17,19,21,23,25,27,29,31,33,-1,-1,35,37,39,41,43,45,47,49,51,53,55,57,59,-1,61,63,65,67,69,71,73,75,77,79,81,-1,83,85,87,-1,89,-1,91,93,95,97,99,101,103,105,107,109,111,-1,113,115,117,119,-1,-1,121,123,125,127,129,131,133,135,137,139,141,143,145,-1,-1,147,-1,149,151,-1,153,155,157,159,161,163,165,167,169,171,173,175,177,179,181,183,185,187,-1,189,191,193,195,-1,-1,-1,197,199,201,203,205,207,209,211,213,215,217,-1,-1,219,221,223,225,227,-1,229,231,-1,233,235,237,239,241,-1,243,245,247,-1,249,-1,-1,-1,251,253,255,-1,-1,-1,257,259,261,263,265,267,269,271,273,275,277,279,281,283,285,-1,-1,-1,287,-1,289,291,293,-1,295,297,-1,-1,299,301,303,305,-1,-1,-1,-1,-1,-1,-1,-1,-1,-1,-1,-1,-1,-1,-1,-1,-1,-1,-1,-1,-1,-1,-1,-1,-1,-1,-1,-1,-1,-1,-1,-1,-1,-1,-1,-1,-1,-1,-1,-1,-1,-1,-1,-1,-1,-1,-1,-1,-1,-1,-1,-1,-1,-1,-1,-1,-1,-1,-1,-1,-1,-1,-1,-1,-1,-1,-1,-1,-1,-1,-1,-1,-1,-1,-1,-1,-1,-1,-1,-1,-1,-1,-1,-1,-1,-1,-1,-1,-1,-1,-1,-1,-1,-1,-1,-1,-1,-1,-1,-1,-1,-1,-1,-1,-1,-1,-1,-1,-1,-1,-1,-1,-1,-1,-1,-1,-1,-1],"loss_changes":[1.0031087E5,2.9468715E4,7.666397E4,1.5689121E4,1.6319414E4,2.1260586E3,1.3332172E4,2.4023867E3,8.923496E2,9.283672E2,1.3884035E4,1.1056445E3,1.4575676E3,6.0318984E3,4.849492E3,2.9480322E2,8.984057E2,0E0,0E0,5.7703516E2,3.625547E2,5.72151E3,3.3324846E3,3.5485881E3,4.7175195E2,5.932827E2,1.1078282E3,3.650601E3,2.4103809E3,7.7484165E3,2.2875E3,8.25166E1,0E0,1.3510315E2,3.6560474E2,3.911289E2,3.5164017E1,2.7403125E2,8.9956836E2,1.979084E3,1.8292687E3,1.544527E3,2.1627266E3,2.2163037E2,0E0,4.025547E2,4.994067E2,5.7156006E2,0E0,6.1798834E2,0E0,1.3048872E3,4.8623027E3,2.0542944E3,8.898096E2,7.105305E2,2.0440498E3,1.4314834E3,6.9565625E2,4.8793945E1,6.9913086E1,1.06320435E2,0E0,3.6659363E1,1.7714133E2,9.9538086E1,5.9313965E2,0E0,0E0,2.5485547E2,1.0547644E2,2.7746582E2,4.358725E1,7.5713477E2,1.1892034E3,1.7098164E3,1.5827612E3,1.0664412E3,6.507625E2,8.610041E2,3.9887207E2,1.04326904E2,0E0,0E0,3.0735742E2,0E0,7.067999E1,2.0961035E2,0E0,2.3824753E2,1.04466675E2,1.1675728E3,6.9282544E2,2.1364377E3,1.1145977E3,9.897156E2,1.2786681E3,8.837871E2,7.0945337E2,3.1895718E2,2.9685718E2,7.6467065E2,5.3722656E1,2.7249272E3,4.644209E2,8.2599243E2,4.1684375E2,0E0,2.4510254E1,2.9168518E1,7.521929E1,3.435559E1,0E0,0E0,0E0,9.969232E1,1.8992395E2,6.6231445E1,1.7140898E2,1.7937158E2,5.217933E2,1.9348828E2,1.16204056E2,6.121167E1,2.9006412E2,2.6170898E2,0E0,0E0,4.1778366E1,1.860586E2,5.9711914E2,4.0187988E2,8.2453467E2,0E0,9.8407495E2,5.161153E2,0E0,7.968882E2,7.986749E2,6.335902E2,3.3950854E2,4.119143E2,0E0,2.8800314E2,4.3073047E2,7.475E1,0E0,1.0930664E2,0E0,0E0,0E0,2.220039E2,5.938952E2,1.8191083E2,0E0,0E0,0E0,5.1760767E2,3.224597E1,6.849493E2,3.4027875E2,5.4846594E2,1.3733185E3,1.0682075E3,5.0610645E2,5.1889233E2,6.0801904E2,5.993368E2,4.1081293E2,1.0994623E2,6.518828E2,6.0073334E2,0E0,0E0,0E0,1.7134814E2,0E0,4.8632935E2,3.2744293E2,1.6741498E2,0E0,1.1129922E3,1.4387548E3,0E0,0E0,1.0727133E3,7.6338574E2,3.2008594E2,6.933566E2,0E0,0E0,0E0,0E0,0E0,0E0,0E0,0E0,0E0,0E0,0E0,0E0,0E0,0E0,0E0,0E0,0E0,0E0,0E0,0E0,0E0,0E0,0E0,0E0,0E0,0E0,0E0,0E0,0E0,0E0,0E0,0E0,0E0,0E0,0E0,0E0,0E0,0E0,0E0,0E0,0E0,0E0,0E0,0E0,0E0,0E0,0E0,0E0,0E0,0E0,0E0,0E0,0E0,0E0,0E0,0E0,0E0,0E0,0E0,0E0,0E0,0E0,0E0,0E0,0E0,0E0,0E0,0E0,0E0,0E0,0E0,0E0,0E0,0E0,0E0,0E0,0E0,0E0,0E0,0E0,0E0,0E0,0E0,0E0,0E0,0E0,0E0,0E0,0E0,0E0,0E0,0E0,0E0,0E0,0E0,0E0,0E0,0E0,0E0,0E0,0E0,0E0,0E0,0E0,0E0,0E0,0E0,0E0,0E0,0E0,0E0,0E0,0E0,0E0,0E0,0E0,0E0,0E0],"parents":[2147483647,0,0,1,1,2,2,3,3,4,4,5,5,6,6,7,7,8,8,9,9,10,10,11,11,12,12,13,13,14,14,15,15,16,16,19,19,20,20,21,21,22,22,23,23,24,24,25,25,26,26,27,27,28,28,29,29,30,30,31,31,33,33,34,34,35,35,36,36,37,37,38,38,39,39,40,40,41,41,42,42,43,43,45,45,46,46,47,47,49,49,51,51,52,52,53,53,54,54,55,55,56,56,57,57,58,58,59,59,60,60,61,61,63,63,64,64,65,65,66,66,69,69,70,70,71,71,72,72,73,73,74,74,75,75,76,76,77,77,78,78,79,79,80,80,81,81,84,84,86,86,87,87,89,89,90,90,91,91,92,92,93,93,94,94,95,95,96,96,97,97,98,98,99,99,100,100,101,101,102,102,103,103,104,104,105,105,106,106,108,108,109,109,110,110,111,111,115,115,116,116,117,117,118,118,119,119,120,120,121,121,122,122,123,123,124,124,125,125,128,128,129,129,130,130,131,131,132,132,134,134,135,135,137,137,138,138,139,139,140,140,141,141,143,143,144,144,145,145,147,147,151,151,152,152,153,153,157,157,158,158,159,159,160,160,161,161,162,162,163,163,164,164,165,165,166,166,167,167,168,168,169,169,170,170,171,171,175,175,177,177,178,178,179,179,181,181,182,182,185,185,186,186,187,187,188,188],"right_children":[2,4,6,8,10,12,14,16,18,20,22,24,26,28,30,32,34,-1,-1,36,38,40,42,44,46,48,50,52,54,56,58,60,-1,62,64,66,68,70,72,74,76,78,80,82,-1,84,86,88,-1,90,-1,92,94,96,98,100,102,104,106,108,110,112,-1,114,116,118,120,-1,-1,122,124,126,128,130,132,134,136,138,140,142,144,146,-1,-1,148,-1,150,152,-1,154,156,158,160,162,164,166,168,170,172,174,176,178,180,182,184,186,188,-1,190,192,194,196,-1,-1,-1,198,200,202,204,206,208,210,212,214,216,218,-1,-1,220,222,224,226,228,-1,230,232,-1,234,236,238,240,242,-1,244,246,248,-1,250,-1,-1,-1,252,254,256,-1,-1,-1,258,260,262,264,266,268,270,272,274,276,278,280,282,284,286,-1,-1,-1,288,-1,290,292,294,-1,296,298,-1,-1,300,302,304,306,-1,-1,-1,-1,-1,-1,-1,-1,-1,-1,-1,-1,-1,-1,-1,-1,-1,-1,-1,-1,-1,-1,-1,-1,-1,-1,-1,-1,-1,-1,-1,-1,-1,-1,-1,-1,-1,-1,-1,-1,-1,-1,-1,-1,-1,-1,-1,-1,-1,-1,-1,-1,-1,-1,-1,-1,-1,-1,-1,-1,-1,-1,-1,-1,-1,-1,-1,-1,-1,-1,-1,-1,-1,-1,-1,-1,-1,-1,-1,-1,-1,-1,-1,-1,-1,-1,-1,-1,-1,-1,-1,-1,-1,-1,-1,-1,-1,-1,-1,-1,-1,-1,-1,-1,-1,-1,-1,-1,-1,-1,-1,-1,-1,-1,-1,-1,-1,-1],"split_conditions":[3.65E1,9E0,1E-45,7E0,1.2E1,1E-45,1E-45,1E-45,2.022E3,2.02E3,1.11E2,2.022E3,5.6E1,1.2051E2,6.3E1,1E0,2E0,3.5876742E-1,-3.9992046E-1,1.3E1,1E0,1E-45,9.5E0,6.1E1,1E-45,1.8E1,1E-45,4.9E1,5.85E1,2.022E3,5.025E1,1E-45,-3.8181818E-1,5E0,1.364E1,1E-45,2.5E1,1E-45,1E-45,4E0,5E0,1E-45,1E-45,1.1E1,-3.9878696E-1,1.55E1,1.2E1,6.05E1,-3.9330545E-1,6E0,-3.9867988E-1,1E-45,1E-45,2E0,3.8E1,1.1E1,1E-45,2.4E2,8.294E0,2.4242424E1,5E0,1.8E1,2.9528832E-1,5E0,1E-45,4.286E1,1E0,-3.925926E-1,1.2121904E-1,4.85E1,9.5E0,3.075E1,5.55E1,1E-45,1E-45,1.05E1,1E-45,2.34E2,9E0,2.325E2,1E-45,3.05E1,-3.75E-1,-3.858407E-1,8.1E1,-3.9405206E-1,1.1E1,5.4E1,-3.9262673E-1,6.1E1,5E0,2E2,1.7E1,2E0,1E-45,1E-45,1E-45,1.1111111E1,6.382E1,4.5E1,1.3E1,1.2653E1,1E-45,3.65E1,1.35E1,8E0,4.7E1,-7.028016E-2,9.25E1,1.05E1,1E-45,9.987E0,3.524566E-1,1.4221331E-1,-3.9215687E-1,2E0,2.021E3,6.533E1,1.7E1,5E-1,1E0,5.5E0,5E0,2.25E1,1.1E1,1E-45,-3.826087E-1,-3.947541E-1,3E0,7.5E0,1.1E1,5.434E0,5.1E1,-3.9825138E-1,1E-45,1.25E1,-3.9927173E-1,1.1E1,4.65E1,3.075E1,8.203E0,2E0,-3.9742765E-1,1E-45,6.75E1,9E0,-3.5E-1,3.05E1,-3.816092E-1,3.9467618E-1,-3.3333334E-1,1.5E1,1E-45,2E1,-3.816092E-1,-3.9537573E-1,3.524566E-1,1.155E2,2E0,7.443E0,3E0,1E-45,8.5E1,1E-45,1E-45,6E1,3.95E1,1.4E1,1E1,1E-45,7E1,6.167E1,-3.9848772E-1,3.3875075E-1,-3.9540228E-1,1E-45,-3.8333333E-1,4E0,1E-45,1.5E1,-3.9983508E-1,1E-45,1E-45,-3.9982828E-1,3.869509E-1,6.35E1,4.65E1,4.348E1,5.55E1,3.8724974E-1,9.024338E-2,3.460238E-1,2.209606E-1,2.4274032E-1,-3.709091E-1,-3.8871473E-1,8.375728E-2,3.6056924E-1,-1.7869298E-1,2.0244494E-1,-3.8832116E-1,3.466484E-1,-3.3333334E-1,2.5632724E-1,-3.7866667E-1,3.0788097E-1,-1.883658E-1,-1.2803987E-1,1.9237635E-1,-3.7142858E-1,3.7923965E-1,-3.846154E-1,3.6699682E-1,2.878231E-1,-3.3846155E-1,-3.886525E-1,3.9042458E-1,3.368735E-1,-5.8576297E-2,2.5512293E-1,-3.529412E-1,3.6496034E-1,-3.7142858E-1,2.9419675E-1,1.3660268E-1,-3.888112E-1,2.8897533E-1,-2.7389285E-1,1.1406175E-1,2.6144585E-1,3.262011E-2,7.1018234E-2,-1.663266E-1,1.4934133E-1,-3.963964E-1,-3.088766E-1,1.8605326E-1,2.9613018E-2,-3.9759037E-1,-1.1245324E-1,-3.9268336E-1,1.7732827E-1,-3.1660637E-1,2.3130892E-1,-2.3399244E-1,-3.9078295E-1,3.5023865E-1,3.9263055E-1,-3.3333334E-1,3.7608978E-1,-3.529412E-1,3.182144E-1,-3.7866667E-1,2.4438179E-1,-3.941392E-1,3.4807804E-1,-3.7333333E-1,1.7910093E-1,-3.9377433E-1,5.1319446E-2,-3.974235E-1,2.3156826E-1,-2.0274515E-1,-3.480413E-1,-8.827325E-3,-1.1613989E-1,-3.490212E-1,-5.539685E-3,2.3577516E-1,1.990664E-1,-2.6994795E-1,-1.7089032E-1,-3.9982632E-1,-3.0910906E-1,3.84365E-2,-3.9967367E-1,3.6745965E-1,-3.95E-1,1.6996287E-1,-8.656342E-2,-3.984048E-1,3.9439988E-1,-3.5555556E-1,-3.6574244E-1,3.4634668E-1,-2.0496285E-1,2.0331602E-1,3.3790123E-1,-3.7142858E-1,-2.1752965E-1,5.0944205E-2,2.005308E-1,-1.834859E-1,-3.9700374E-1,4.1268878E-2,-1.9937514E-1,-3.8582897E-1,8.873465E-2,-3.6459592E-1,-2.7133343E-1,2.2511218E-1,-3.840013E-1,3.9243767E-1,1.6555242E-1,-3.8603327E-1,2.5682867E-1,-3.975E-1],"split_indices":[14,43,44,54,14,44,44,44,141,141,108,160,14,108,108,56,22,0,0,52,62,44,62,108,44,110,44,14,109,141,14,44,0,14,129,44,9,44,44,52,62,44,44,52,0,98,78,38,0,78,0,44,44,80,54,54,44,108,134,124,14,31,0,3,153,129,14,0,0,4,14,54,43,44,44,54,44,108,78,108,127,62,0,0,109,0,31,108,0,108,102,129,62,83,153,44,44,115,109,108,52,134,44,24,148,78,54,0,115,38,44,134,0,0,0,83,141,43,98,117,136,84,3,126,14,127,0,0,78,24,62,134,38,0,44,62,0,52,147,54,134,83,0,44,15,90,0,62,0,0,0,31,44,9,0,0,0,108,22,134,83,44,124,44,44,43,136,98,9,61,19,43,0,0,0,127,0,83,44,93,0,44,44,0,0,14,98,129,109,0,0,0,0,0,0,0,0,0,0,0,0,0,0,0,0,0,0,0,0,0,0,0,0,0,0,0,0,0,0,0,0,0,0,0,0,0,0,0,0,0,0,0,0,0,0,0,0,0,0,0,0,0,0,0,0,0,0,0,0,0,0,0,0,0,0,0,0,0,0,0,0,0,0,0,0,0,0,0,0,0,0,0,0,0,0,0,0,0,0,0,0,0,0,0,0,0,0,0,0,0,0,0,0,0,0,0,0,0,0,0,0,0,0,0,0,0,0],"split_type":[0,0,1,0,0,1,1,1,0,0,0,0,0,0,0,0,0,0,0,0,0,1,0,0,1,0,1,0,0,0,0,1,0,0,0,1,0,1,1,0,0,1,1,0,0,0,0,0,0,0,0,1,1,0,0,0,1,0,0,0,0,0,0,0,1,0,0,0,0,0,0,0,0,1,1,0,1,0,0,0,1,0,0,0,0,0,0,0,0,0,0,0,0,0,1,1,1,0,0,0,0,0,1,0,0,0,0,0,0,0,1,0,0,0,0,0,0,0,0,0,0,0,0,0,0,1,0,0,0,0,0,0,0,0,1,0,0,0,0,0,0,0,0,1,0,0,0,0,0,0,0,0,1,0,0,0,0,0,0,0,0,1,0,1,1,0,0,0,0,1,0,0,0,0,0,1,0,0,1,0,0,1,1,0,0,0,0,0,0,0,0,0,0,0,0,0,0,0,0,0,0,0,0,0,0,0,0,0,0,0,0,0,0,0,0,0,0,0,0,0,0,0,0,0,0,0,0,0,0,0,0,0,0,0,0,0,0,0,0,0,0,0,0,0,0,0,0,0,0,0,0,0,0,0,0,0,0,0,0,0,0,0,0,0,0,0,0,0,0,0,0,0,0,0,0,0,0,0,0,0,0,0,0,0,0,0,0,0,0,0,0,0,0,0,0,0,0,0,0,0,0,0,0,0,0,0,0],"sum_hessian":[1.462805E5,6.634688E4,7.993362E4,7.5202915E3,5.8826586E4,1.2706633E4,6.7226984E4,2.4307346E3,5.089557E3,2.7164342E4,3.1662246E4,1.0139025E4,2.5676072E3,2.5824354E4,4.1402633E4,1.7597235E3,6.7101105E2,6.205691E1,5.0275E3,6.6219165E3,2.0542424E4,2.2969695E4,8.692551E3,1.2232002E3,8.915825E3,1.8847161E3,6.82891E2,1.54551455E4,1.0369208E4,7.720566E3,3.3682066E4,1.7387235E3,2.1E1,3.2294678E2,3.4806427E2,6.56346E3,5.845668E1,1.8798414E4,1.7440094E3,1.7424793E4,5.5449023E3,5.508448E3,3.1841025E3,8.944502E2,3.2875E2,8.770441E3,1.4538364E2,1.8259661E3,5.875E1,3.8089102E2,3.02E2,5.1732466E3,1.0281898E4,4.1105728E3,6.2586357E3,1.3507446E3,6.3698213E3,9.347954E3,2.4334113E4,1.3691122E3,3.696113E2,3.1057672E2,1.2370046E1,5.520668E1,2.928576E2,3.079655E3,3.4838047E3,5.3E1,5.456682E0,1.7937982E4,8.604329E2,1.6525961E3,9.141336E1,1.2294408E4,5.130385E3,3.3423892E3,2.2025134E3,3.7567393E3,1.751709E3,8.454652E2,2.3386372E3,8.794502E2,1.5E1,2.725E1,8.743191E3,6.625E1,7.913364E1,1.7727161E3,5.325E1,2.8797766E2,9.291336E1,3.9975312E3,1.1757152E3,6.68014E3,3.6017585E3,2.0180581E3,2.0925144E3,5.420471E3,8.381645E2,1.1765346E2,1.2330912E3,3.7658748E3,2.6039468E3,6.9900503E3,2.3579036E3,2.1294614E3,2.2204652E4,9.206682E0,1.3599055E3,3.3878455E2,3.0826729E1,3.0316336E2,7.413364E0,5.206682E0,5E1,2.0087741E2,9.198019E1,2.8680176E3,2.1163733E2,2.181648E3,1.3021569E3,1.7901861E4,3.6120045E1,7.854094E2,7.50235E1,1.6305961E3,2.2E1,7.525E1,1.6163364E1,6.090827E3,6.203581E3,2.1648076E3,2.9655774E3,2.2775E2,3.1146392E3,1.6542633E3,5.4825E2,3.1434053E3,6.133341E2,1.0139219E3,7.377871E2,6.909652E2,1.545E2,3.3474377E2,2.0038936E3,8.724502E2,7E0,8.722441E3,2.075E1,7.413364E1,5E0,1.3054847E3,4.6723132E2,2.6722766E2,2.075E1,8.55E1,7.413364E0,3.8368247E3,1.6070668E2,6.0272144E2,5.729938E2,2.2335493E3,4.446591E3,8.33068E2,2.7686904E3,7.5128455E2,1.2667736E3,1.322147E3,7.703675E2,7.8426956E1,5.3420444E3,5.746645E2,2.635E2,3.1653456E1,8.6E1,1.2100912E3,2.3E1,3.3359502E3,4.299244E2,1.7944678E2,2.4245E3,5.182663E3,1.8073871E3,2.32825E3,2.9653456E1,7.561212E2,1.3733403E3,2.1937691E4,2.6696036E2,1.3479922E3,1.1913364E1,2.1020415E2,1.2858041E2,1.8076729E1,1.275E1,2.972067E2,5.956682E0,1.8667073E2,1.4206682E1,5.8730183E1,3.325E1,2.8630176E3,5E0,1.9388733E2,1.775E1,2.1527346E3,2.8913364E1,2.512537E2,1.0509032E3,1.3E1,1.7888861E4,2.5E1,1.1120046E1,7.799094E2,5.5E0,3.425E1,4.0773502E1,1.5609426E3,6.965346E1,8.663364E0,7.5E0,6.077827E3,1.3E1,5.010188E3,1.1933933E3,3.475E1,2.1300576E3,2.3731682E2,2.7282605E3,1.846653E3,1.2679862E3,1.107876E3,5.463873E2,3.0334053E3,1.1E2,4.2643686E2,1.8689723E2,8.489219E2,1.65E2,2.788304E2,4.589567E2,6.160518E2,7.491336E1,6.539355E1,2.6935022E2,1.9727401E3,3.1153456E1,8.674502E2,5E0,8.714941E3,7.5E0,1.2877347E3,1.775E1,3.9998132E2,6.725E1,2.5322765E2,1.4E1,3.7735747E3,6.325E1,6.456682E0,1.5425E2,3.6116452E2,2.4155692E2,4.0619678E2,1.66797E2,1.7031892E3,5.303601E2,3.0896963E3,1.3568944E3,3.0656427E2,5.2650366E2,4.6669055E2,2.302E3,2.6440344E2,4.868811E2,1.22475E3,4.2023502E1,7.9E1,1.243147E3,5.206175E2,2.4975E2,7.0426956E1,8E0,5.2908574E3,5.1186867E1,2.8992697E2,2.8473755E2,1.1970912E3,1.3E1,3.0401494E3,2.958007E2,3.0581427E2,1.2411014E2,1.325E2,4.6946774E1,2.8536396E3,2.3290234E3,1.4620603E3,3.4532672E2,4.8609033E2,2.7003088E2,1.3214468E3,5.1893547E1,4.1653458E1,2.189604E4,1.07960365E2,1.59E2],"tree_param":{"num_deleted":"0","num_feature":"161","num_nodes":"307","size_leaf_vector":"1"}},{"base_weights":[-4.1577712E-4,1.0199275E0,-5.792653E-1,1.1165671E0,-3.340445E-1,1.1949849E0,-9.4736797E-1,1.371511E0,5.7013947E-1,-1.3794204E0,1.2514334E0,-1.1872486E-1,-1.1315248E0,1.4362229E0,4.675615E-1,7.6613724E-1,-8.669918E-1,3.253663E-1,-3.329955E-1,6.8546134E-1,1.4706892E0,4.954389E-1,-6.353351E-1,-8.1986904E-1,-1.4471364E0,-4.081652E-1,1.4472457E0,9.2114437E-1,-2.9678616E-1,1.0250118E0,5.7296813E-2,2.3326899E-1,-1.3517215E0,8.6367065E-1,-1.2512202E0,9.8628867E-1,1.5535744E0,-1.1622828E0,6.233181E-1,-8.8365585E-1,2.4637902E-1,-5.896907E-1,-1.2674419E0,-1.5547044E0,-7.209479E-1,1.1641E0,1.5188917E0,9.9735737E-1,-3.9672908E-1,1.3371706E0,-7.495908E-1,1.4710798E0,8.682876E-1,-3.389802E-1,2.5095382E-1,5.8914745E-1,-1.6639625E0,-2.1112697E-1,-1.5783494E0,1.3549017E0,3.4474987E-1,3.3266032E-1,-1.7685443E0,1.501551E0,-1.7186004E0,1.5573252E0,-3.3746096E-1,4.8113924E-1,-1.7851927E0,-2.9137117E-1,7.830696E-1,-6.1434764E-1,-1.6605028E0,1.3605279E0,-1.576322E-1,1.6712561E-1,-7.6879144E-1,5.235529E-1,-1.3276249E0,1.4412224E0,-1.5778142E0,3.5340872E-1,-1.1256797E0,1.4285592E0,7.970446E-1,1.5837972E0,1.2314482E0,-3.9548227E-1,1.0614593E0,1.6422218E0,-3.6897513E-1,-2.680597E-1,-4.1163436E-1,1.4908406E0,-4.2310938E-1,-3.982493E-1,8.9554703E-1,5.248638E-1,-6.5704924E-1,-1.3603354E0,9.0303886E-1,-3.6186847E-1,6.972877E-2,8.600631E-1,-3.7359336E-1,-1.6494766E0,1.1489339E0,1.4323314E0,-3.3572647E-1,-3.5357085E-1,5.1261127E-1,-4.123509E-1,-3.3300444E-1,1.6185081E0,-3.7562767E-1,-4.4166556E-1,-3.328136E-1,1.5601678E0,-3.0127597E-1,1.424652E0,-3.5879534E-1,-4.2441097E-1,-3.4625843E-1,-1.2411292E0,2.603553E-1,8.421906E-1,-1.0369995E0,-9.219423E-2,-1.0785906E0,7.209517E-1,-1.7410696E0,-3.906228E-1,1.5122837E0,-3.805697E-1,1.9245806E-1,-3.3483574E-1,3.382021E-1,-1.700116E0,-6.96085E-1,1.0197637E0,-3.4128854E-1,-4.7417542E-1,-1.4430025E0,1.6457031E0,-3.1359848E-1,6.0820335E-1,-1.5964593E0,-1.7237194E0,1.5109088E0,-4.4293234E-1,-1.530231E0,2.8761822E-1,-3.0887136E-1,2.0115082E-1,-5.204079E-5,3.1731635E-1,-4.0927315E-1,7.756906E-3,2.746718E-1,2.313234E-1,-1.4518268E-1,1.81957E-1,3.5972002E-1,2.2556102E-1,-1.2245941E-1,-3.2836694E-1,2.9998097E-1,1.8244247E-1,-4.130467E-1,1.5849878E-1,-1.2727785E-1,2.0508699E-1,-2.2849126E-1,-3.9369607E-1,3.106065E-1,2.1299072E-1,-3.7718204E-1,3.0363598E-1,-3.4481668E-1,-1.7307894E-1,-3.521245E-1,-3.0439946E-1,3.665057E-1,2.939309E-1,-3.2535154E-1,1.408042E-1,-1.806309E-1,3.300291E-1,1.4717244E-1,3.124871E-1,-3.443049E-1,3.6402878E-1,-3.0951855E-1,-3.826172E-1,1.0299152E-1,1.9838026E-1,-3.3492205E-1,2.2549081E-1,1.0245546E-1,-3.947352E-1,3.371823E-1,7.628792E-2,-3.4457335E-1,-2.3985647E-1,1.9606978E-1,-3.451561E-1,3.718492E-1,2.5128993E-1,-3.5519743E-1,-4.0104294E-1,3.18786E-1,1.1162567E-1,-2.5673267E-1,-1.3817972E-1,1.139189E-1,-3.9741132E-1,-3.344132E-1,-4.7145154E-2,-1.9938755E-1,2.7703127E-1,-3.5998023E-1,4.1088123E-2,-3.5385862E-1,-3.2983738E-1,-2.1996911E-1,3.3464754E-1,1.05560854E-1,3.026796E-1,-3.547576E-1,4.9483653E-2,-3.2144845E-1,-3.330858E-1,-3.7637356E-1,3.1204793E-1,-3.2632145E-1,-2.2577107E-1,1.16814665E-1,-3.3419558E-1,1.2271998E-1],"categories":[0,1,2,3,5,6,7,8,10,11,12,14,15,17,18,19,20,21,22,23,24,25,26,27,29,30,31,32,33,34,35,36,37,39,40,41,43,44,45,46,47,48,49,51,52,53,54,55,56,57,58,59,60,61,62,63,64,65,66,68,70,71,72,73,74,75,76,78,79,81,82,85,86,87,88,91,92,93,94,95,96,97,98,99,100,102,103,105,106,107,108,109,110,111,112,113,115,116,117,119,120,121,123,125,126,127,128,131,132,133,134,135,136,137,138,139,140,141,142,143,146,147,148,149,150,151,152,2,3,4,6,7,10,11,12,14,16,17,18,19,20,21,22,23,24,25,26,27,29,30,31,32,33,34,35,37,38,46,47,48,50,51,53,54,56,58,61,62,63,66,67,69,72,73,75,78,80,81,82,83,84,85,87,88,90,91,92,94,95,97,98,99,103,104,105,106,107,109,111,112,117,118,119,120,121,122,123,129,131,135,136,137,138,141,142,144,146,147,148,150,151,152,0,1,2,4,5,0,1,3,4,7,8,9,10,11,12,13,14,15,16,17,18,19,20,21,22,23,24,25,26,27,28,30,32,33,35,37,38,39,42,44,45,46,48,49,50,51,52,54,58,59,60,62,63,64,65,66,67,68,69,72,73,74,76,77,78,79,80,82,83,84,85,87,88,89,90,93,94,95,96,97,98,99,100,101,103,104,105,106,107,108,109,111,114,115,116,117,118,119,120,121,122,124,125,127,129,130,131,132,134,135,136,137,138,139,140,141,143,144,145,147,148,151,1,2,3,6,7,11,14,15,17,18,19,21,23,24,26,31,33,35,37,40,41,43,44,47,54,56,58,61,62,64,65,71,72,76,78,81,86,87,91,93,94,99,100,102,103,105,108,110,112,113,115,117,123,125,132,133,134,138,139,143,146,151,152,0,3,4,5,6,7,8,9,10,12,13,14,16,17,18,19,20,22,23,24,25,27,28,30,31,32,33,34,35,36,37,38,39,40,41,42,43,44,45,46,48,49,50,51,52,53,54,56,57,59,60,61,62,63,64,65,66,67,68,69,70,71,72,73,74,75,76,77,79,80,81,82,83,84,85,86,87,88,89,90,91,92,94,95,96,97,98,99,100,101,102,103,104,106,107,108,109,110,111,112,113,114,115,116,117,118,119,120,122,123,124,125,126,127,128,129,130,131,132,135,136,137,138,139,140,141,142,143,144,145,146,147,148,149,150,151,152,0,1,2,3,4,6,7,8,10,11,12,13,14,15,16,17,18,19,20,21,22,23,24,25,26,27,28,29,30,31,32,33,34,35,37,38,39,41,43,44,45,46,47,48,50,51,53,54,56,58,59,61,62,63,64,65,66,67,68,69,72,73,74,75,77,78,79,80,81,82,83,84,85,86,87,88,90,91,92,93,94,95,96,97,98,99,102,103,104,105,106,107,109,110,111,112,113,117,118,119,120,121,122,123,126,127,128,129,131,133,134,135,136,137,138,140,141,142,143,144,145,146,147,148,150,151,152,0,1,2,3,4,5,6,7,8,9,10,12,13,14,15,16,17,19,20,22,23,24,25,27,28,29,30,31,32,33,34,35,36,37,38,39,40,41,42,43,44,45,46,47,48,49,50,51,52,53,54,55,57,58,59,60,61,62,63,64,65,66,67,68,69,70,71,72,73,74,75,76,77,79,80,81,82,83,84,85,86,87,88,89,90,91,92,93,94,95,96,97,98,99,100,101,102,103,104,105,106,107,108,109,110,111,112,113,114,115,116,117,118,119,120,122,123,124,125,126,127,128,129,130,131,132,133,134,135,136,137,138,139,140,141,142,143,144,145,146,148,149,150,151,152,0,1,2,3,5,6,7,8,9,10,11,12,13,14,15,17,18,19,20,21,22,23,24,25,26,27,28,29,30,31,32,33,34,35,36,37,38,39,40,41,43,44,45,46,47,48,49,50,51,52,53,54,55,56,57,58,59,60,61,62,63,64,65,66,67,68,69,70,71,72,73,74,75,76,77,78,79,80,81,82,83,85,86,87,88,89,90,91,92,93,94,95,96,97,98,99,100,101,102,103,104,105,106,107,108,109,110,111,112,113,115,116,117,118,119,120,121,122,123,124,125,126,127,128,131,132,133,134,135,136,137,138,139,140,141,142,143,144,145,146,147,148,149,150,151,152,12,18,21,24,35,59,60,62,74,79,82,93,96,97,108,117,121,125,134,147,0,1,2,3,4,5,6,7,8,9,10,11,12,13,14,15,16,17,18,19,20,21,22,23,24,25,26,27,28,29,30,31,32,33,34,35,36,37,38,39,40,41,42,43,45,46,47,48,49,50,51,52,53,54,55,56,57,58,60,61,62,63,64,65,66,67,68,69,70,71,72,73,74,75,76,77,78,79,80,81,82,83,84,85,86,87,88,89,90,91,92,93,94,95,96,97,98,99,100,101,102,103,104,105,106,107,108,109,110,111,112,113,114,115,117,118,119,120,121,122,123,124,126,127,128,129,130,131,132,133,134,135,136,137,138,139,140,141,142,143,144,145,146,148,149,150,151,152,0,5,8,12,20,29,30,36,48,49,53,55,57,59,63,68,70,73,75,82,92,96,98,107,127,128,142,147,149,150,0,2,4,7,8,9,10,11,13,16,17,18,19,20,21,24,25,26,27,30,32,33,35,37,38,39,40,42,43,44,45,46,47,50,51,52,54,63,64,65,66,67,68,69,70,71,72,73,76,77,81,83,85,86,87,88,89,90,91,93,97,98,99,100,105,106,109,113,114,115,117,121,125,127,128,129,131,134,135,137,139,140,141,142,145,148,149,150,151,152,1,2,0,43,65,71,125,127,128,140,0,1,2,3,4,5,6,7,8,10,11,12,13,101,104,0,3,4,5,0,1,3,4,5,0,8,36,55,59,68,74,79,116,121,126,127,128,147,0,1,2,3,4,5,6,7,8,9,10,11,12,13,24,2,9,10,17,19,21,22,23,24,2,3,6,9,10,16,17,20,22,23,24,25,27,28,29,31,32,33,35,37,38,40,42,49,51,60,61,62,63,64,66,67,69,72,73,75,80,81,83,84,85,86,87,90,91,92,95,97,106,108,109,111,114,118,119,120,123,130,131,136,137,138,1,2,3,4,5,6,7,8,9,10,11,12,13,14,15,16,17,18,19,20,21,22,23,24,25,26,27,28,29,30,31,32,33,34,35,37,38,39,40,41,42,43,44,45,46,47,48,49,50,51,52,53,54,56,57,58,60,61,62,63,64,66,67,69,70,71,72,73,75,76,77,78,80,81,82,83,84,85,86,87,88,89,90,91,92,94,95,96,97,98,99,100,101,102,103,104,105,106,107,108,109,110,111,112,114,115,117,118,119,120,121,122,123,124,126,129,130,131,132,133,135,136,137,138,139,141,142,143,144,145,146,147,148,149,150,151,152,3,7,11,18,19,26,29,30,33,34,35,47,53,56,58,61,63,78,91,98,103,104,105,118,121,122,144,147,150,0,1,2,3,4,5,6,7,8,10,11,12,13,14,15,16,17,18,19,20,21,22,23,24,25,26,27,29,30,31,32,33,34,35,36,37,38,39,40,41,42,43,44,45,46,47,48,49,50,51,52,53,54,55,56,57,58,59,60,61,62,63,64,65,66,68,69,70,71,72,73,74,75,76,78,79,80,81,82,85,86,87,88,91,92,93,94,95,96,97,98,99,100,102,103,105,106,107,108,109,110,111,112,113,115,116,117,119,120,121,122,123,124,125,126,127,128,129,131,132,133,134,135,136,137,138,139,140,141,142,143,146,147,148,149,150,151,152,0,0,1,3,4,7,8,9,10,11,12,13,14,15,16,17,18,19,20,21,22,23,24,25,26,27,28,30,32,33,34,35,36,37,38,39,40,42,43,44,45,46,48,49,50,51,52,54,55,58,59,60,61,62,63,64,65,66,67,68,69,72,73,74,76,77,78,79,80,81,82,83,84,85,86,87,88,89,90,91,92,93,94,95,96,97,98,99,100,101,103,104,105,106,107,108,109,111,113,114,115,116,117,118,119,120,121,122,124,125,127,128,129,130,131,132,134,135,136,137,138,139,140,141,143,144,145,147,148,150,151,0,1,2,4,5,1,2,3,4,5,6,7,9,10,11,12,13,14,15,16,17,18,19,20,21,22,23,24,25,26,27,28,29,30,31,32,33,34,35,36,37,38,39,40,41,42,43,44,45,46,47,48,49,50,51,52,53,54,56,57,58,59,60,61,62,63,64,65,66,67,68,69,70,71,72,73,74,75,76,77,78,79,80,81,82,83,84,85,86,87,88,89,90,91,92,93,94,95,96,97,98,99,100,101,102,103,104,105,106,107,108,109,110,111,112,113,114,115,116,117,118,119,120,121,122,123,124,125,126,129,130,131,132,133,134,135,136,137,138,139,140,141,142,143,144,145,146,147,148,149,150,151,152,0,1,2,3,4,5,6,7,8,9,10,12,13,14,15,16,17,18,20,21,22,23,24,25,26,27,28,29,30,31,32,33,34,35,36,37,38,39,40,41,42,43,44,45,46,47,48,49,50,51,52,53,54,55,56,57,58,59,60,61,62,63,64,65,66,67,68,69,70,71,72,73,74,75,77,79,80,81,82,83,84,85,86,87,88,89,90,91,92,93,94,95,96,97,98,99,100,101,102,103,104,105,106,107,108,109,110,111,112,113,114,115,116,117,118,119,120,121,122,123,124,126,127,128,129,130,131,133,134,135,136,137,138,139,140,141,142,143,144,145,146,147,148,149,150,151,152],"categories_nodes":[2,8,9,11,12,14,29,31,33,39,40,41,45,49,50,63,67,72,78,79,82,85,97,105,117,124,125,137,139,145],"categories_segments":[0,127,222,227,344,407,544,671,816,962,982,1130,1160,1250,1252,1260,1275,1279,1284,1298,1313,1322,1384,1521,1550,1688,1689,1819,1824,1972],"categories_sizes":[127,95,5,117,63,137,127,145,146,20,148,30,90,2,8,15,4,5,14,15,9,62,137,29,138,1,130,5,148,147],"default_left":[0,0,0,0,0,0,0,0,0,1,0,0,1,0,0,0,0,0,0,0,0,0,0,1,0,0,0,0,0,0,0,0,0,0,0,0,0,0,0,1,0,1,0,0,0,0,0,0,0,1,1,0,0,0,0,0,0,0,0,0,0,0,0,1,0,0,0,1,0,1,0,0,1,1,1,0,0,0,1,1,0,1,1,0,0,1,0,0,0,0,0,0,0,0,0,0,0,0,0,0,0,0,0,0,0,1,0,0,0,0,0,0,0,0,0,0,0,0,0,0,0,0,0,0,1,0,0,0,0,1,0,0,0,0,0,0,0,1,0,0,0,0,0,0,0,0,0,0,0,1,1,0,0,0,0,0,0,0,0,0,0,0,0,0,0,0,0,0,0,0,0,0,0,0,0,0,0,0,0,0,0,0,0,0,0,0,0,0,0,0,0,0,0,0,0,0,0,0,0,0,0,0,0,0,0,0,0,0,0,0,0,0,0,0,0,0,0,0,0,0,0,0,0,0,0,0,0,0,0,0,0,0,0,0,0,0,0,0,0],"id":1,"left_children":[1,3,5,7,-1,9,11,13,15,17,19,21,23,25,27,29,31,-1,-1,33,35,37,39,41,43,-1,45,47,49,51,53,55,57,59,61,63,65,67,69,71,73,75,77,79,81,83,85,87,-1,89,91,93,95,-1,97,99,101,103,105,107,109,-1,111,113,115,117,-1,119,121,123,125,127,129,131,133,135,137,139,141,143,145,147,149,151,153,155,157,-1,159,161,-1,163,-1,165,-1,-1,167,169,171,173,175,-1,-1,177,-1,179,181,183,-1,-1,185,-1,-1,187,-1,-1,-1,189,-1,191,-1,-1,-1,193,195,197,199,201,203,205,207,-1,209,-1,211,-1,213,215,217,219,-1,221,223,225,-1,227,229,231,233,235,237,-1,-1,-1,-1,-1,-1,-1,-1,-1,-1,-1,-1,-1,-1,-1,-1,-1,-1,-1,-1,-1,-1,-1,-1,-1,-1,-1,-1,-1,-1,-1,-1,-1,-1,-1,-1,-1,-1,-1,-1,-1,-1,-1,-1,-1,-1,-1,-1,-1,-1,-1,-1,-1,-1,-1,-1,-1,-1,-1,-1,-1,-1,-1,-1,-1,-1,-1,-1,-1,-1,-1,-1,-1,-1,-1,-1,-1,-1,-1,-1,-1,-1,-1,-1,-1,-1,-1,-1],"loss_changes":[8.411143E4,1.3402949E4,5.9344523E4,6.9312812E3,0E0,2.2705898E3,1.1483281E4,1.9840781E3,4.460209E3,2.9069318E2,1.8949141E3,4.3420415E3,6.054828E3,1.2164609E3,7.8662976E2,2.556604E3,1.0139374E3,0E0,0E0,1.4741E3,4.4056445E2,1.3261427E3,1.6276016E3,3.1909316E3,2.3883125E3,0E0,6.385156E2,3.1715808E2,6.265293E2,7.121836E2,1.2655027E3,3.9399847E2,3.4073657E2,9.959541E2,5.4579846E2,2.2486895E3,1.169043E2,4.5960217E2,8.4850195E2,1.212331E3,7.3576904E2,2.773526E3,1.1347051E3,1.8468008E3,1.7172295E3,6.1798047E2,4.679297E2,2.667655E2,0E0,1.8145703E2,4.1699725E2,1.9110938E2,5.9065283E2,0E0,8.355271E2,3.0161545E2,2.7608566E1,3.9182306E2,2.153938E2,4.739817E2,6.7548145E2,0E0,5.863159E0,5.3834375E2,3.2243652E0,8.412695E1,0E0,2.6863864E2,2.2301025E0,4.5299487E2,5.326904E2,1.0442468E3,2.875952E2,2.2168384E2,7.3362555E2,1.234214E3,1.1191709E3,3.810155E2,1.00163477E3,1.2838663E2,1.0785469E3,2.602017E3,7.915242E2,1.07234375E2,4.448296E2,2.1090234E2,7.8593506E2,0E0,2.3203735E2,1.76362E1,0E0,2.3400082E2,0E0,7.7370605E1,0E0,0E0,3.711587E2,8.024467E2,6.3710724E2,1.24380844E2,1.9320901E2,0E0,0E0,2.3087827E2,0E0,9.198877E1,5.494111E1,2.2597363E2,0E0,0E0,4.7838766E2,0E0,0E0,3.535254E1,0E0,0E0,0E0,7.251367E1,0E0,1.0646808E2,0E0,0E0,0E0,3.757631E2,7.76319E2,4.4997485E2,4.010466E2,1.5675469E3,5.678721E2,1.4119397E2,1.5335352E2,0E0,1.2280646E2,0E0,5.4076904E2,0E0,8.5388367E2,6.315918E0,2.125626E3,2.9199777E2,0E0,1.0686528E3,6.3258984E2,5.0247803E0,0E0,4.8634204E2,5.216094E2,4.3676758E-1,1.1025635E2,7.534042E2,5.4433154E2,0E0,0E0,0E0,0E0,0E0,0E0,0E0,0E0,0E0,0E0,0E0,0E0,0E0,0E0,0E0,0E0,0E0,0E0,0E0,0E0,0E0,0E0,0E0,0E0,0E0,0E0,0E0,0E0,0E0,0E0,0E0,0E0,0E0,0E0,0E0,0E0,0E0,0E0,0E0,0E0,0E0,0E0,0E0,0E0,0E0,0E0,0E0,0E0,0E0,0E0,0E0,0E0,0E0,0E0,0E0,0E0,0E0,0E0,0E0,0E0,0E0,0E0,0E0,0E0,0E0,0E0,0E0,0E0,0E0,0E0,0E0,0E0,0E0,0E0,0E0,0E0,0E0,0E0,0E0,0E0,0E0,0E0,0E0,0E0,0E0,0E0,0E0,0E0],"parents":[2147483647,0,0,1,1,2,2,3,3,5,5,6,6,7,7,8,8,9,9,10,10,11,11,12,12,13,13,14,14,15,15,16,16,19,19,20,20,21,21,22,22,23,23,24,24,26,26,27,27,28,28,29,29,30,30,31,31,32,32,33,33,34,34,35,35,36,36,37,37,38,38,39,39,40,40,41,41,42,42,43,43,44,44,45,45,46,46,47,47,49,49,50,50,51,51,52,52,54,54,55,55,56,56,57,57,58,58,59,59,60,60,62,62,63,63,64,64,65,65,67,67,68,68,69,69,70,70,71,71,72,72,73,73,74,74,75,75,76,76,77,77,78,78,79,79,80,80,81,81,82,82,83,83,84,84,85,85,86,86,88,88,89,89,91,91,93,93,96,96,97,97,98,98,99,99,100,100,103,103,105,105,106,106,107,107,110,110,113,113,117,117,119,119,123,123,124,124,125,125,126,126,127,127,128,128,129,129,130,130,132,132,134,134,136,136,137,137,138,138,139,139,141,141,142,142,143,143,145,145,146,146,147,147,148,148,149,149,150,150],"right_children":[2,4,6,8,-1,10,12,14,16,18,20,22,24,26,28,30,32,-1,-1,34,36,38,40,42,44,-1,46,48,50,52,54,56,58,60,62,64,66,68,70,72,74,76,78,80,82,84,86,88,-1,90,92,94,96,-1,98,100,102,104,106,108,110,-1,112,114,116,118,-1,120,122,124,126,128,130,132,134,136,138,140,142,144,146,148,150,152,154,156,158,-1,160,162,-1,164,-1,166,-1,-1,168,170,172,174,176,-1,-1,178,-1,180,182,184,-1,-1,186,-1,-1,188,-1,-1,-1,190,-1,192,-1,-1,-1,194,196,198,200,202,204,206,208,-1,210,-1,212,-1,214,216,218,220,-1,222,224,226,-1,228,230,232,234,236,238,-1,-1,-1,-1,-1,-1,-1,-1,-1,-1,-1,-1,-1,-1,-1,-1,-1,-1,-1,-1,-1,-1,-1,-1,-1,-1,-1,-1,-1,-1,-1,-1,-1,-1,-1,-1,-1,-1,-1,-1,-1,-1,-1,-1,-1,-1,-1,-1,-1,-1,-1,-1,-1,-1,-1,-1,-1,-1,-1,-1,-1,-1,-1,-1,-1,-1,-1,-1,-1,-1,-1,-1,-1,-1,-1,-1,-1,-1,-1,-1,-1,-1,-1,-1,-1,-1,-1,-1],"split_conditions":[4.324E1,1E0,1E-45,1.429E1,-3.340445E-1,1E0,6.667E1,2.45E1,1E-45,1E-45,3.3E1,1E-45,1E-45,6E0,1E-45,1.11E2,3.5E1,3.253663E-1,-3.329955E-1,4E0,2.022E3,6E0,1.89E2,5.4054054E1,1.79E2,-4.081652E-1,4.05E1,7.05E1,3.75E1,1E-45,6E0,1E-45,7.272727E1,1E-45,3.05E1,6.1E1,1.47E2,9.5E0,6.507E0,1E-45,1E-45,1E-45,3.0232557E1,5E0,2.022E3,1E-45,2E0,1.35E1,-3.9672908E-1,1E-45,1E-45,3.35E1,5.333E0,-3.389802E-1,5E0,9.25E1,2.235E2,3E1,7.895E1,1.1E1,6E0,3.3266032E-1,3.35E1,1E-45,3.65E1,3.2E1,-3.3746096E-1,1E-45,4.85E1,7.805E0,1.5E1,2E0,1E-45,5.626E0,6.282E0,6E0,1E0,2.07E2,1E-45,1E-45,4.5E1,6E1,1E-45,2.37E2,1E0,1E-45,7.804878E1,-3.9548227E-1,2E0,4.5E0,-3.6897513E-1,3.5E1,-4.1163436E-1,1.95E1,-4.2310938E-1,-3.982493E-1,2.1E1,1E-45,4.18E1,4E0,1.7E1,-3.6186847E-1,6.972877E-2,1.1E1,-3.7359336E-1,1E-45,1E0,5E0,-3.3572647E-1,-3.5357085E-1,1.6E1,-4.123509E-1,-3.3300444E-1,4.8E1,-3.7562767E-1,-4.4166556E-1,-3.328136E-1,1E-45,-3.0127597E-1,7.937E0,-3.5879534E-1,-4.2441097E-1,-3.4625843E-1,7.551E1,1E-45,1E-45,1.6E1,5.55E1,4.6E1,1.8E1,2.55E1,-3.906228E-1,2.45E1,-3.805697E-1,1.8E1,-3.3483574E-1,2E0,1E-45,6.5E1,1E-45,-3.4128854E-1,4E0,5.85E1,3E0,-3.1359848E-1,1E-45,5.781E0,9E0,1.3E1,8.396E0,9.433E0,2.8761822E-1,-3.0887136E-1,2.0115082E-1,-5.204079E-5,3.1731635E-1,-4.0927315E-1,7.756906E-3,2.746718E-1,2.313234E-1,-1.4518268E-1,1.81957E-1,3.5972002E-1,2.2556102E-1,-1.2245941E-1,-3.2836694E-1,2.9998097E-1,1.8244247E-1,-4.130467E-1,1.5849878E-1,-1.2727785E-1,2.0508699E-1,-2.2849126E-1,-3.9369607E-1,3.106065E-1,2.1299072E-1,-3.7718204E-1,3.0363598E-1,-3.4481668E-1,-1.7307894E-1,-3.521245E-1,-3.0439946E-1,3.665057E-1,2.939309E-1,-3.2535154E-1,1.408042E-1,-1.806309E-1,3.300291E-1,1.4717244E-1,3.124871E-1,-3.443049E-1,3.6402878E-1,-3.0951855E-1,-3.826172E-1,1.0299152E-1,1.9838026E-1,-3.3492205E-1,2.2549081E-1,1.0245546E-1,-3.947352E-1,3.371823E-1,7.628792E-2,-3.4457335E-1,-2.3985647E-1,1.9606978E-1,-3.451561E-1,3.718492E-1,2.5128993E-1,-3.5519743E-1,-4.0104294E-1,3.18786E-1,1.1162567E-1,-2.5673267E-1,-1.3817972E-1,1.139189E-1,-3.9741132E-1,-3.344132E-1,-4.7145154E-2,-1.9938755E-1,2.7703127E-1,-3.5998023E-1,4.1088123E-2,-3.5385862E-1,-3.2983738E-1,-2.1996911E-1,3.3464754E-1,1.05560854E-1,3.026796E-1,-3.547576E-1,4.9483653E-2,-3.2144845E-1,-3.330858E-1,-3.7637356E-1,3.1204793E-1,-3.2632145E-1,-2.2577107E-1,1.16814665E-1,-3.3419558E-1,1.2271998E-1],"split_indices":[34,56,44,34,0,10,34,24,44,61,30,44,44,30,44,108,47,0,0,155,160,30,30,50,30,0,30,43,69,44,30,44,115,44,10,108,30,62,7,44,44,44,115,38,160,44,52,84,0,61,44,54,134,0,52,115,30,34,47,52,30,0,14,44,14,98,0,61,10,134,90,52,153,7,7,109,10,108,44,18,47,47,18,53,31,44,50,0,52,4,0,38,0,126,0,0,31,44,43,22,9,0,0,110,0,44,9,128,0,0,110,0,0,108,0,0,0,44,0,7,0,0,0,47,60,44,80,109,54,84,38,0,10,0,9,0,83,153,108,44,0,52,30,38,0,44,134,43,52,7,7,0,0,0,0,0,0,0,0,0,0,0,0,0,0,0,0,0,0,0,0,0,0,0,0,0,0,0,0,0,0,0,0,0,0,0,0,0,0,0,0,0,0,0,0,0,0,0,0,0,0,0,0,0,0,0,0,0,0,0,0,0,0,0,0,0,0,0,0,0,0,0,0,0,0,0,0,0,0,0,0,0,0,0,0,0,0,0,0],"split_type":[0,0,1,0,0,0,0,0,1,1,0,1,1,0,1,0,0,0,0,0,0,0,0,0,0,0,0,0,0,1,0,1,0,1,0,0,0,0,0,1,1,1,0,0,0,1,0,0,0,1,1,0,0,0,0,0,0,0,0,0,0,0,0,1,0,0,0,1,0,0,0,0,1,0,0,0,0,0,1,1,0,0,1,0,0,1,0,0,0,0,0,0,0,0,0,0,0,1,0,0,0,0,0,0,0,1,0,0,0,0,0,0,0,0,0,0,0,1,0,0,0,0,0,0,1,1,0,0,0,0,0,0,0,0,0,0,0,1,0,1,0,0,0,0,0,1,0,0,0,0,0,0,0,0,0,0,0,0,0,0,0,0,0,0,0,0,0,0,0,0,0,0,0,0,0,0,0,0,0,0,0,0,0,0,0,0,0,0,0,0,0,0,0,0,0,0,0,0,0,0,0,0,0,0,0,0,0,0,0,0,0,0,0,0,0,0,0,0,0,0,0,0,0,0,0,0,0,0,0,0,0,0,0,0,0,0,0,0,0],"sum_hessian":[1.4240883E5,5.1546535E4,9.08623E4,4.975958E4,1.7869543E3,1.5611728E4,7.525057E4,3.3928316E4,1.5831264E4,3.344678E2,1.527726E4,1.3683069E4,6.1567504E4,3.1661166E4,2.2671501E3,1.3931707E4,1.8995566E3,2.8606874E1,3.0586093E2,4.2669556E3,1.1010304E4,6.251324E3,7.431745E3,3.0979691E4,3.058781E4,9.947206E1,3.1561693E4,1.4226871E3,8.4446295E2,1.0204493E4,3.7272131E3,5.810906E2,1.3184661E3,3.907912E3,3.590437E2,1.6105837E3,9.399721E3,4.47121E2,5.804203E3,5.7986465E3,1.6330985E3,2.0459877E4,1.0519814E4,2.6640494E4,3.9473162E3,6.3769897E3,2.5184705E4,1.3869542E3,3.5732876E1,1.8281552E2,6.616474E2,2.6509565E3,7.553537E3,3.7017133E2,3.3570417E3,4.8988797E2,9.120262E1,2.1886626E2,1.0995997E3,2.0066892E3,1.9012229E3,5.3789135E1,3.0525458E2,1.353245E3,2.5733878E2,9.389373E3,1.0347296E1,1.22955444E2,3.2416556E2,8.6286633E2,4.941337E3,4.3072505E3,1.4913962E3,4.3396848E2,1.19913E3,3.9152944E3,1.6544582E4,3.4175543E2,1.017806E4,2.0345453E2,2.6437041E4,1.0801624E3,2.8671538E3,3.7048188E3,2.6721711E3,2.0541805E4,4.6429E3,2.8626783E1,1.3583275E3,1.672644E2,1.5551122E1,4.8454834E2,1.7709908E2,2.6370122E3,1.3944445E1,7.064613E1,7.482891E3,2.5793667E3,7.776749E2,6.747676E1,4.224112E2,8.515266E1,6.0499682E0,1.3321815E2,8.56481E1,1.0720364E3,2.7563383E1,1.9572588E3,4.943041E1,1.3924437E2,1.7619785E3,7.471636E1,2.3053821E2,1.3084849E3,4.4760136E1,2.1826946E1,2.3551184E2,9.38116E3,8.213006E0,8.717637E1,3.5779076E1,3.9421757E1,2.847438E2,3.1660452E2,5.462618E2,4.7863984E3,1.5493855E2,2.0277522E3,2.2794983E3,4.8544086E1,1.4428522E3,1.8484423E1,4.1548404E2,1.9961327E2,9.995168E2,3.321E2,3.5831943E3,1.196447E3,1.5348136E4,2.7999472E2,6.1760735E1,1.2127133E3,8.965347E3,1.9093343E2,1.2521102E1,2.2331374E2,2.6213727E4,3.863572E2,6.938052E2,1.0675616E3,1.7995922E3,3.693493E3,1.1325953E1,2.1175906E3,5.545806E2,2.0526623E4,1.5181946E1,4.9383383E2,4.149066E3,1.2900021E3,6.832544E1,3.0628054E1,1.3663635E2,9.540593E1,3.891424E2,7.0884E0,2.6299236E3,7.441696E3,4.119523E1,2.096509E3,4.8285776E2,1.7387811E2,6.037968E2,5.609223E1,1.138453E1,3.998176E2,2.2593588E1,1.0650622E2,2.6711939E1,1.3418814E2,9.3784827E2,5.3670115E0,2.2196371E1,1.93418E3,2.3078737E1,1.5525751E3,2.0940337E2,1.2623674E3,4.6117397E1,9.375205E3,5.9546022E0,7.728086E1,9.895503E0,2.289201E2,8.768442E1,3.967509E2,1.495109E2,2.5656025E3,2.220796E3,1.1548655E2,3.9452E1,1.5719427E3,4.5580945E2,2.1536711E3,1.2582708E2,1.5249531E1,3.3294556E1,1.6211145E1,1.426641E3,8.890772E0,4.065933E2,8.015706E2,1.9794615E2,6.5741296E2,2.9257815E3,1.0032499E2,1.096122E3,6.066727E3,9.281408E3,2.4832385E2,3.167086E1,7.959028E2,4.168105E2,5.598004E3,3.3673425E3,1.8585883E2,5.0745945E0,1.6208392E2,6.1229813E1,1.5227832E2,2.606145E4,2.9073065E2,9.562655E1,6.8357794E2,1.0227228E1,6.400091E2,4.2755252E2,1.688931E3,1.1066114E2],"tree_param":{"num_deleted":"0","num_feature":"161","num_nodes":"239","size_leaf_vector":"1"}},{"base_weights":[-8.335983E-4,9.2590284E-1,-4.6579224E-1,1.0162355E0,-2.9593325E-1,1.0502295E0,-7.6352686E-1,1.2086322E0,6.067329E-1,-1.2178289E0,1.0977699E0,-6.4885005E-2,-9.625107E-1,1.280679E0,7.174253E-1,9.9441475E-1,1.059125E-1,2.8779793E-1,-2.9503742E-1,6.149157E-1,1.2902765E0,4.1469643E-1,-5.041663E-1,-6.454909E-1,-1.2477337E0,1.0553973E0,1.3811133E0,7.9754E-1,-1.7565383E0,-3.17741E-1,1.0292493E0,-9.404121E-2,9.43957E-1,8.3927894E-1,-5.9733367E-1,1.3175454E0,6.265497E-2,-1.111795E0,5.205844E-1,-1.4017019E0,-3.2512444E-1,-1.4622841E0,-5.2955383E-1,-1.3655376E0,-5.272662E-1,1.1527458E0,5.3516376E-1,1.4202354E0,1.1778697E0,1.2736865E0,5.233816E-1,-1.8633643E0,7.422077E-2,1.0522453E0,-4.294004E-1,5.7709616E-2,-1.103606E0,5.008404E-1,1.4287367E0,8.998775E-1,-3.144214E-1,-1.6725043E0,2.1406112E-2,-4.1049644E-1,1.3225484E0,1.3808947E0,-3.000797E-1,1.2414043E0,-1.3462466E0,6.499243E-1,-2.8898817E-1,4.4035962E-1,-1.4687968E0,-9.78239E-2,-1.0106244E0,-6.9912654E-1,-1.586929E0,-8.7423915E-1,-2.4012809E-1,3.912988E-1,-1.3891919E0,1.2347524E0,-9.7609806E-1,1.2580138E0,8.1799066E-1,7.51748E-1,-8.148489E-1,1.4222238E0,-4.6833625E-1,1.2320924E0,-9.4978625E-1,1.3359789E0,-3.857503E-1,6.330949E-1,-1.9844576E0,-3.2054833E-1,-4.5635805E-1,1.2063245E0,7.030276E-1,1.3107015E-1,-1.4597611E0,1.0873895E0,-1.3720624E0,7.5236726E-1,-4.4016382E-1,1.4885552E0,6.531815E-1,9.5475775E-1,-3.2982862E-1,-3.0558702E-1,-4.2509672E-1,6.483471E-1,-3.4054053E-1,1.3271604E0,-3.3589193E-1,3.04339E-1,1.0325642E0,2.6812607E-1,8.0298565E-2,2.874755E-1,-1.5543532E0,1.0548795E0,4.0014118E-1,9.5118356E-1,-7.2738385E-1,3.1619325E-1,-2.922097E-1,9.8502827E-1,-1.5083975E0,3.8219652E-1,-5.533424E-1,-5.288021E-1,-1.5908866E0,1.1360736E0,-3.1866255E-1,-1.5142739E0,-1.7297689E0,-3.516436E-1,-1.2772454E0,8.5684556E-1,-4.0085045E-1,1.2851596E0,-1.0654591E0,1.0659224E0,-1.4016737E0,-3.6923748E-1,1.3442533E0,-5.770929E-1,-1.335821E0,2.5516737E-1,-3.7388753E-2,1.7375025E-1,-4.3028817E-1,1.7953639E-1,-3.931891E-1,-2.708263E-1,2.8129825E-1,2.8852767E-1,2.5232828E-1,2.511724E-1,-4.637787E-1,-4.2667666E-1,2.9152173E-1,2.8095886E-1,6.554604E-2,-4.2110434E-1,1.4456265E-1,2.5761906E-2,-4.2507187E-1,2.4369863E-1,-4.5491597E-1,1.5566216E-1,-3.800212E-1,6.005412E-2,-1.0166418E-1,-3.8652214E-1,2.010505E-1,2.745894E-1,-2.6972318E-2,-3.122513E-1,2.2496116E-1,-2.6324987E-1,2.2373621E-1,1.5192454E-1,3.0382323E-1,3.0227718E-1,-3.8080224E-1,2.7999017E-1,1.4262816E-1,2.1635437E-1,-3.833238E-1,2.1240823E-1,2.7379712E-1,2.3676415E-1,9.41949E-2,-3.678946E-1,-3.0379385E-1,-4.0154955E-1,2.2129135E-1,-1.6307926E-1,1.05728365E-1,2.6294306E-1,-3.3255625E-1,-2.3072486E-1,1.5979753E-1,-2.812883E-1,4.3675968E-1,-4.3055516E-2,-3.0716753E-1,1.0557548E-1,-2.5189742E-1,6.812863E-2,-1.7006911E-1,4.3279253E-2,-2.2800083E-1,-3.029395E-1,-3.277924E-1,3.8667712E-1,-3.7734747E-1,-3.0432615E-1,-2.5119144E-2,-3.3603367E-1,-3.9169925E-1,7.549165E-2,-1.4688295E-1,-1.2766054E-1,-2.7885887E-1,8.100904E-2,3.0642492E-1,-6.325062E-3,-1.634891E-1,-2.9712877E-1,2.9789358E-1,-3.1332758E-1,2.3488402E-1,2.6849034E-1,-3.1869712E-1,-2.587663E-1,-2.9954287E-1,1.2812006E-1,3.0613762E-1,-3.1803608E-1,-4.2221174E-2,-2.7915785E-1,1.7263693E-1],"categories":[0,1,2,3,5,6,7,8,10,11,12,14,15,17,18,19,20,21,22,23,24,25,26,27,29,30,31,32,33,34,35,36,37,39,40,41,43,44,45,46,47,48,49,51,52,53,54,55,56,57,58,59,60,61,62,63,64,65,66,68,69,70,71,72,73,74,75,76,77,78,79,81,82,85,86,87,88,91,92,93,94,95,96,97,98,99,100,102,103,105,106,107,108,109,110,111,112,113,115,116,117,119,120,121,123,125,126,127,128,131,132,133,134,135,136,137,138,139,140,141,142,143,146,147,148,149,150,151,152,0,2,3,4,6,8,9,10,11,13,16,17,18,19,20,21,22,24,25,26,27,28,29,31,32,33,34,35,36,37,38,42,43,44,47,48,51,58,61,63,66,67,68,69,72,73,75,78,79,81,83,84,85,87,88,90,91,92,94,95,100,106,109,113,118,120,121,122,123,125,126,127,129,130,131,134,135,136,137,140,141,142,143,145,146,147,148,150,151,152,0,1,2,4,5,0,1,3,4,7,9,10,11,12,13,14,15,16,17,18,19,20,21,22,23,24,25,26,27,28,30,32,33,35,37,38,39,40,42,44,45,46,48,49,50,51,52,54,58,59,60,62,63,64,65,66,67,68,69,72,73,74,76,78,79,80,82,83,84,85,87,88,89,90,93,94,95,96,97,98,99,100,101,103,104,105,106,107,108,109,111,114,115,117,118,119,120,121,122,124,125,127,129,130,131,132,134,135,136,137,138,139,140,141,144,145,147,148,151,1,2,3,6,7,11,14,15,18,19,21,23,24,26,31,33,35,37,40,41,43,44,47,54,56,58,61,62,64,65,72,76,78,81,86,87,91,93,94,99,100,102,103,105,108,110,112,113,115,117,123,125,127,132,133,134,138,139,143,146,147,151,152,2,3,4,6,7,8,9,10,12,14,16,17,19,20,22,23,24,25,27,28,29,30,31,32,33,34,35,37,38,39,40,45,46,47,48,49,50,51,52,53,54,57,58,60,61,62,63,64,66,67,69,70,71,72,73,75,76,77,80,81,82,83,84,85,86,87,88,90,91,92,93,94,95,96,97,98,99,102,103,104,105,106,107,109,110,111,112,114,115,117,118,119,120,122,123,129,130,131,132,133,134,136,137,138,139,141,142,144,146,148,149,150,151,9,38,83,101,104,118,144,1,2,3,10,11,12,13,16,17,19,20,21,22,23,24,25,27,29,31,32,33,35,37,38,40,42,43,44,45,46,49,50,51,54,57,60,62,63,64,66,67,69,70,72,73,75,76,79,81,82,83,84,85,86,87,88,90,91,93,95,96,97,101,105,106,107,109,111,114,117,118,119,120,121,123,124,125,130,131,134,136,137,138,139,140,141,144,146,150,152,0,2,3,4,6,7,8,9,10,11,12,14,15,16,17,18,19,20,21,22,23,24,25,26,27,28,29,30,31,32,33,34,35,37,38,39,40,43,44,45,46,47,48,49,50,51,52,53,54,56,57,58,59,60,61,62,63,64,65,66,67,68,69,70,71,72,73,74,75,76,77,78,79,80,81,82,83,84,85,86,87,88,90,91,92,93,94,95,96,97,98,99,102,103,104,105,106,107,109,110,111,112,114,115,117,118,119,120,121,122,123,127,128,129,130,131,132,133,134,136,137,138,139,140,141,142,144,146,147,148,149,150,151,152,3,18,33,34,47,58,61,79,87,91,125,145,147,0,1,4,5,0,1,3,4,5,0,5,8,12,20,30,34,36,46,48,49,53,55,57,59,60,63,68,70,73,74,75,79,92,96,97,107,116,121,128,140,150,0,1,2,5,7,8,9,10,11,12,13,14,0,3,4,6,7,8,9,10,11,13,14,16,17,19,20,23,24,25,26,27,28,32,33,34,35,37,38,39,40,42,43,45,49,50,51,52,54,56,61,62,63,64,66,67,68,69,70,71,72,77,79,80,81,83,84,85,86,87,88,89,90,91,92,93,96,97,98,99,102,103,104,105,106,108,109,111,114,115,119,129,131,137,138,139,141,145,146,148,149,151,1,2,3,4,5,6,7,8,9,10,12,13,14,16,17,18,19,20,21,22,23,24,25,26,27,28,29,31,32,33,34,35,36,37,38,39,40,41,42,44,45,46,47,48,49,50,51,52,53,54,56,60,61,62,63,64,65,66,67,68,69,70,72,73,74,75,76,79,80,81,82,83,84,85,86,87,88,89,90,92,94,95,96,97,98,99,100,102,103,104,106,107,108,109,110,111,112,114,8,71,93,103,133,0,1,2,3,4,6,7,8,9,10,11,12,13,14,15,16,17,18,22,23,25,26,27,28,29,30,31,32,34,35,36,37,38,39,13,0,1,2,3,4,5,6,7,8,9,10,11,12,13,14,15,16,17,19,20,21,22,23,24,26,27,28,29,30,31,32,33,34,35,36,37,38,39,0,1,2,3,4,7,8,9,10,11,12,13,14,15,16,17,18,19,20,21,22,23,24,25,26,27,28,30,32,33,34,35,37,38,39,40,41,42,43,44,45,46,48,49,50,51,52,54,55,56,58,59,60,61,62,63,64,65,66,67,68,69,72,73,74,76,77,78,79,80,81,82,83,84,85,86,87,88,89,90,92,93,94,95,96,97,98,99,100,101,102,103,104,105,106,107,108,109,111,113,114,115,116,117,118,119,120,121,122,123,124,125,126,127,128,129,130,131,132,133,134,135,136,137,138,139,140,141,143,144,145,147,148,150,151,0,2,4,5,6,7,8,9,10,12,13,14,16,17,18,19,20,21,22,23,24,25,27,28,29,30,31,32,33,34,35,36,37,38,39,41,42,43,44,45,46,47,48,49,50,51,52,53,54,55,56,57,58,60,61,62,63,64,66,67,69,70,71,72,73,74,75,77,78,79,80,81,82,83,84,85,86,87,88,89,90,91,92,93,94,95,96,97,98,99,100,101,102,103,104,106,107,108,109,110,111,112,113,114,115,116,117,118,119,120,121,122,123,124,126,127,128,129,130,131,132,133,134,135,136,137,138,139,140,141,142,143,144,145,146,147,148,149,150,151,152,15,18,21,26,59,68,74,78,79,93,105,121,125,147,5,12,30,34,46,48,49,53,57,60,63,73,92,96,97,107,140,150,2,9,10,15,17,19,21,22,23,24,0,1,2,3,4,5,6,7,8,9,10,11,12,13,14,15,16,17,18,19,20,21,22,23,24,25,26,27,28,29,30,31,32,33,34,35,36,37,38,39,40,41,42,43,44,45,46,47,48,49,50,51,52,53,54,55,56,57,58,59,60,61,62,63,64,65,66,67,68,69,70,71,72,73,74,75,76,77,78,79,80,81,82,83,84,85,86,87,88,89,90,91,92,93,94,95,96,97,98,99,100,101,102,103,104,105,106,107,108,109,110,111,112,113,114,115,116,117,118,119,120,121,122,123,124,125,126,127,128,129,130,131,132,133,134,135,136,137,138,139,147,0,1,2,3,4,5,6,7,8,9,10,11,12,13,14,15,16,17,19,20,21,22,23,24,25,26,27,28,29,30,31,32,33,34,35,36,37,38,39,40,41,42,43,44,45,46,48,49,50,51,52,53,54,55,56,57,59,60,61,62,63,64,65,66,67,68,69,70,71,72,73,74,75,76,77,78,80,81,82,83,84,85,86,87,88,89,90,91,92,93,94,95,96,97,98,99,100,101,102,103,104,105,106,107,108,109,110,111,112,113,114,115,116,117,118,119,120,121,122,123,124,126,127,128,129,130,131,132,133,134,135,136,137,138,139,140,141,142,143,144,145,146,147,148,149,150,151,152,0,1,2,3,4,5,6,7,10,11,12,13,14,16,17,18,19,20,21,22,23,24,25,26,27,28,29,30,31,32,33,34,35,37,38,39,0,1,2,3,4,5,6,7,9,10,11,12,13,14,15,16,17,18,19,20,21,22,23,24,25,26,27,28,29,30,31,32,33,34,35,36,37,38,39,40,41,42,43,44,45,46,48,49,50,51,52,53,54,56,57,58,59,60,61,62,63,64,65,66,67,68,69,70,72,73,74,75,76,77,78,79,80,81,82,83,84,85,86,87,88,89,90,91,92,93,94,95,96,97,98,99,100,101,102,103,104,105,106,107,108,109,110,111,112,113,114,115,116,117,118,119,120,121,122,123,124,125,126,127,129,130,131,132,133,134,135,136,137,138,139,140,141,142,143,144,145,146,147,148,149,150,151,152,15,68,74,78,105,125,5,12,34,46,60,63,97,0,8,20,30,36,53,57,59,60,63,71,73,77,79,82,88,98,107,116,149,150,0,1,2,3,4,5,6,7,8,9,10,11,12,13,14,16,17,18,19,20,21,23,1,2,3,6,7,11,14,18,19,21,23,24,26,31,33,35,37,40,44,47,54,56,61,64,72,76,86,87,91,99,102,103,105,108,113,115,123,125,127,132,133,134,138,139,146,152],"categories_nodes":[2,8,9,11,12,14,19,26,27,31,37,39,41,43,45,46,51,58,64,65,69,73,74,76,82,94,101,107,123,132,136,140,143,144],"categories_segments":[0,129,219,224,338,401,514,521,611,745,758,762,767,799,811,901,999,1004,1038,1039,1077,1212,1353,1367,1385,1395,1536,1684,1720,1868,1874,1881,1902,1924],"categories_sizes":[129,90,5,114,63,113,7,90,134,13,4,5,32,12,90,98,5,34,1,38,135,141,14,18,10,141,148,36,148,6,7,21,22,46],"default_left":[0,0,0,0,0,0,0,0,0,1,0,0,1,0,0,0,0,0,0,1,0,0,0,0,0,0,0,0,0,0,0,1,0,0,0,0,0,1,0,1,0,1,0,0,0,0,0,0,0,0,0,1,0,0,0,0,0,0,1,0,0,0,0,0,1,1,0,1,0,0,0,0,0,0,1,0,1,0,0,1,0,0,1,1,0,0,0,0,0,1,1,0,0,0,0,0,0,1,0,0,0,0,0,0,0,0,0,1,0,0,0,0,0,0,0,0,0,0,0,0,0,0,0,0,0,0,0,0,0,0,0,0,1,0,0,0,1,0,0,0,1,0,0,1,1,0,0,1,1,0,0,0,0,0,0,0,0,0,0,0,0,0,0,0,0,0,0,0,0,0,0,0,0,0,0,0,0,0,0,0,0,0,0,0,0,0,0,0,0,0,0,0,0,0,0,0,0,0,0,0,0,0,0,0,0,0,0,0,0,0,0,0,0,0,0,0,0,0,0,0,0,0,0,0,0,0,0,0,0,0,0,0,0,0,0,0,0,0,0,0,0,0,0,0,0],"id":2,"left_children":[1,3,5,7,-1,9,11,13,15,17,19,21,23,25,27,29,31,-1,-1,33,35,37,39,41,43,45,47,49,51,-1,53,55,57,59,61,63,65,67,69,71,73,75,77,79,81,83,85,87,89,91,93,95,-1,97,-1,99,101,103,105,107,-1,109,111,-1,113,115,-1,117,119,121,123,125,127,129,131,133,135,137,139,141,143,145,147,149,151,153,155,157,-1,159,161,163,-1,165,167,-1,-1,169,171,173,175,177,179,181,-1,183,185,187,-1,-1,-1,189,-1,191,-1,-1,193,-1,-1,-1,195,197,199,201,203,-1,-1,205,207,209,211,213,215,217,-1,219,221,223,225,227,229,231,233,235,237,-1,239,241,243,-1,-1,-1,-1,-1,-1,-1,-1,-1,-1,-1,-1,-1,-1,-1,-1,-1,-1,-1,-1,-1,-1,-1,-1,-1,-1,-1,-1,-1,-1,-1,-1,-1,-1,-1,-1,-1,-1,-1,-1,-1,-1,-1,-1,-1,-1,-1,-1,-1,-1,-1,-1,-1,-1,-1,-1,-1,-1,-1,-1,-1,-1,-1,-1,-1,-1,-1,-1,-1,-1,-1,-1,-1,-1,-1,-1,-1,-1,-1,-1,-1,-1,-1,-1,-1,-1,-1,-1,-1,-1,-1,-1,-1,-1,-1,-1],"loss_changes":[5.804859E4,9.781836E3,4.049269E4,3.4170273E3,0E0,1.5891992E3,1.0423965E4,1.0435273E3,2.692558E3,2.0917288E2,1.3400059E3,3.5022302E3,5.2762617E3,5.8084766E2,7.500576E2,7.0502686E2,1.0142765E3,0E0,0E0,1.119316E3,3.45125E2,1.285205E3,1.3938384E3,2.6168154E3,2.6066133E3,4.014961E2,1.3983594E2,4.7703857E2,2.7692139E1,0E0,5.6566797E2,7.4881635E2,2.4975146E2,5.0869458E2,4.2780212E2,1.7279883E2,4.6595236E2,2.8627576E2,7.7847E2,1.7895044E2,1.1272035E3,3.2566553E2,2.4147588E3,1.0977148E3,3.4167095E3,2.3463379E2,3.671063E2,1.1492969E2,3.3327222E2,2.691836E2,6.406921E2,8.696411E0,0E0,4.1125293E2,0E0,4.732739E2,3.7715894E2,4.166526E2,2.4834595E1,4.753916E2,0E0,1.21345825E1,4.4333456E2,0E0,1.4169922E2,4.4441833E0,0E0,3.4003677E0,2.7426837E2,6.478694E2,5.577465E2,1.1393612E2,1.3677002E2,1.1884901E3,5.0282446E2,7.9620703E2,2.8019043E1,2.326495E3,2.3205515E3,4.5912128E2,7.9984375E2,2.9842212E2,4.9334473E2,1.3121533E2,2.4344995E2,4.3036084E2,2.1006775E2,4.7066406E1,0E0,2.3988379E2,2.0855914E2,9.053882E1,0E0,5.4879346E2,2.9350708E1,0E0,0E0,2.278081E2,4.6143982E2,4.388012E2,2.3045926E2,2.471183E1,2.707433E2,4.253904E2,0E0,1.0333374E1,9.420491E1,3.5572314E2,0E0,0E0,0E0,3.3642447E2,0E0,1.10083984E2,0E0,0E0,2.7057648E0,0E0,0E0,0E0,1.6187744E0,3.8835693E2,6.198574E2,2.5688202E2,4.9379205E2,0E0,0E0,6.819371E1,4.829883E1,6.336388E2,7.407568E2,4.4921274E2,5.0927734E-1,3.8728796E2,0E0,1.9882812E1,7.921875E0,1.3431907E3,4.6561133E2,5.125563E2,1.7656302E3,1.2579971E2,1.525181E2,9.946707E1,2.6652734E2,0E0,1.102229E2,6.054863E2,2.3984302E2,0E0,0E0,0E0,0E0,0E0,0E0,0E0,0E0,0E0,0E0,0E0,0E0,0E0,0E0,0E0,0E0,0E0,0E0,0E0,0E0,0E0,0E0,0E0,0E0,0E0,0E0,0E0,0E0,0E0,0E0,0E0,0E0,0E0,0E0,0E0,0E0,0E0,0E0,0E0,0E0,0E0,0E0,0E0,0E0,0E0,0E0,0E0,0E0,0E0,0E0,0E0,0E0,0E0,0E0,0E0,0E0,0E0,0E0,0E0,0E0,0E0,0E0,0E0,0E0,0E0,0E0,0E0,0E0,0E0,0E0,0E0,0E0,0E0,0E0,0E0,0E0,0E0,0E0,0E0,0E0,0E0,0E0,0E0,0E0,0E0,0E0,0E0,0E0,0E0,0E0,0E0,0E0,0E0,0E0,0E0,0E0],"parents":[2147483647,0,0,1,1,2,2,3,3,5,5,6,6,7,7,8,8,9,9,10,10,11,11,12,12,13,13,14,14,15,15,16,16,19,19,20,20,21,21,22,22,23,23,24,24,25,25,26,26,27,27,28,28,30,30,31,31,32,32,33,33,34,34,35,35,36,36,37,37,38,38,39,39,40,40,41,41,42,42,43,43,44,44,45,45,46,46,47,47,48,48,49,49,50,50,51,51,53,53,55,55,56,56,57,57,58,58,59,59,61,61,62,62,64,64,65,65,67,67,68,68,69,69,70,70,71,71,72,72,73,73,74,74,75,75,76,76,77,77,78,78,79,79,80,80,81,81,82,82,83,83,84,84,85,85,86,86,87,87,89,89,90,90,91,91,93,93,94,94,97,97,98,98,99,99,100,100,101,101,102,102,103,103,105,105,106,106,107,107,111,111,113,113,116,116,120,120,121,121,122,122,123,123,124,124,127,127,128,128,129,129,130,130,131,131,132,132,133,133,135,135,136,136,137,137,138,138,139,139,140,140,141,141,142,142,143,143,144,144,146,146,147,147,148,148],"right_children":[2,4,6,8,-1,10,12,14,16,18,20,22,24,26,28,30,32,-1,-1,34,36,38,40,42,44,46,48,50,52,-1,54,56,58,60,62,64,66,68,70,72,74,76,78,80,82,84,86,88,90,92,94,96,-1,98,-1,100,102,104,106,108,-1,110,112,-1,114,116,-1,118,120,122,124,126,128,130,132,134,136,138,140,142,144,146,148,150,152,154,156,158,-1,160,162,164,-1,166,168,-1,-1,170,172,174,176,178,180,182,-1,184,186,188,-1,-1,-1,190,-1,192,-1,-1,194,-1,-1,-1,196,198,200,202,204,-1,-1,206,208,210,212,214,216,218,-1,220,222,224,226,228,230,232,234,236,238,-1,240,242,244,-1,-1,-1,-1,-1,-1,-1,-1,-1,-1,-1,-1,-1,-1,-1,-1,-1,-1,-1,-1,-1,-1,-1,-1,-1,-1,-1,-1,-1,-1,-1,-1,-1,-1,-1,-1,-1,-1,-1,-1,-1,-1,-1,-1,-1,-1,-1,-1,-1,-1,-1,-1,-1,-1,-1,-1,-1,-1,-1,-1,-1,-1,-1,-1,-1,-1,-1,-1,-1,-1,-1,-1,-1,-1,-1,-1,-1,-1,-1,-1,-1,-1,-1,-1,-1,-1,-1,-1,-1,-1,-1,-1,-1,-1,-1,-1],"split_conditions":[3.939E1,1E0,1E-45,3.056E1,-2.9593325E-1,1E0,6.667E1,1E0,1E-45,1E-45,3.3E1,1E-45,1E-45,4E0,1E-45,9E0,2.1E2,2.8779793E-1,-2.9503742E-1,1E-45,1.5E1,6E0,1.2E1,6E0,1.8E2,1E0,1E-45,1E-45,2.7E1,-3.17741E-1,3.15E1,1E-45,1.0133E1,6.05E1,1.35E1,2.95E1,6.15E1,1E-45,1.5E1,1E-45,1.5E1,1E-45,2E0,1E-45,2.022E3,1E-45,1E-45,1.9E1,3.15E1,2.35E1,2.1E1,1E-45,7.422077E-2,9.6E1,-4.294004E-1,3.3E1,1.1E1,1.5E1,1E-45,1.9E1,-3.144214E-1,6E0,6E0,-4.1049644E-1,1E-45,1E-45,-3.000797E-1,8.1E0,5.304E1,1E-45,1.335E2,5.7E1,5.3E-1,1E-45,1E-45,2.4E2,1E-45,9E0,7E0,7.5E1,3.448E1,3.25E1,1E-45,1.1834E1,5E-1,2.45E1,1.8E1,1E0,-4.6833625E-1,1.33E0,1.8E1,1.74E2,-3.857503E-1,1.632653E1,1E-45,-3.2054833E-1,-4.5635805E-1,9E0,3.95E1,8E0,2.5E1,1E-45,8.049E1,6E0,-4.4016382E-1,3.125E1,1E0,1E-45,-3.2982862E-1,-3.0558702E-1,-4.2509672E-1,2.022E3,-3.4054053E-1,2.022E3,-3.3589193E-1,3.04339E-1,8E0,2.6812607E-1,8.0298565E-2,2.874755E-1,4.85E1,7.027027E1,7.851E0,1E-45,2.75E1,3.1619325E-1,-2.922097E-1,6.15E1,1.65E1,1.3E1,3E1,6E0,1E-45,3E0,-3.1866255E-1,3E0,1E-45,8.956E0,6.11E1,7.01E0,1E-45,2.019E3,1.5E1,1E-45,1E-45,-3.6923748E-1,8.049E1,9.39E0,1.3347E1,2.5516737E-1,-3.7388753E-2,1.7375025E-1,-4.3028817E-1,1.7953639E-1,-3.931891E-1,-2.708263E-1,2.8129825E-1,2.8852767E-1,2.5232828E-1,2.511724E-1,-4.637787E-1,-4.2667666E-1,2.9152173E-1,2.8095886E-1,6.554604E-2,-4.2110434E-1,1.4456265E-1,2.5761906E-2,-4.2507187E-1,2.4369863E-1,-4.5491597E-1,1.5566216E-1,-3.800212E-1,6.005412E-2,-1.0166418E-1,-3.8652214E-1,2.010505E-1,2.745894E-1,-2.6972318E-2,-3.122513E-1,2.2496116E-1,-2.6324987E-1,2.2373621E-1,1.5192454E-1,3.0382323E-1,3.0227718E-1,-3.8080224E-1,2.7999017E-1,1.4262816E-1,2.1635437E-1,-3.833238E-1,2.1240823E-1,2.7379712E-1,2.3676415E-1,9.41949E-2,-3.678946E-1,-3.0379385E-1,-4.0154955E-1,2.2129135E-1,-1.6307926E-1,1.05728365E-1,2.6294306E-1,-3.3255625E-1,-2.3072486E-1,1.5979753E-1,-2.812883E-1,4.3675968E-1,-4.3055516E-2,-3.0716753E-1,1.0557548E-1,-2.5189742E-1,6.812863E-2,-1.7006911E-1,4.3279253E-2,-2.2800083E-1,-3.029395E-1,-3.277924E-1,3.8667712E-1,-3.7734747E-1,-3.0432615E-1,-2.5119144E-2,-3.3603367E-1,-3.9169925E-1,7.549165E-2,-1.4688295E-1,-1.2766054E-1,-2.7885887E-1,8.100904E-2,3.0642492E-1,-6.325062E-3,-1.634891E-1,-2.9712877E-1,2.9789358E-1,-3.1332758E-1,2.3488402E-1,2.6849034E-1,-3.1869712E-1,-2.587663E-1,-2.9954287E-1,1.2812006E-1,3.0613762E-1,-3.1803608E-1,-4.2221174E-2,-2.7915785E-1,1.7263693E-1],"split_indices":[34,56,44,47,0,10,34,62,44,61,30,44,44,144,44,30,30,0,0,44,78,30,30,30,30,9,44,44,138,0,35,44,134,144,30,91,30,61,15,153,15,44,83,127,141,44,44,12,148,24,109,44,0,108,0,80,54,31,18,97,0,30,12,0,127,18,0,28,154,44,108,19,91,44,44,108,44,9,54,34,47,124,18,134,117,24,93,105,0,91,84,30,0,124,44,0,0,83,54,62,148,44,47,9,0,124,31,18,0,0,0,25,0,160,0,0,28,0,0,0,10,50,134,44,62,0,0,69,109,12,109,12,44,83,0,81,44,134,108,53,44,25,31,18,44,0,47,134,134,0,0,0,0,0,0,0,0,0,0,0,0,0,0,0,0,0,0,0,0,0,0,0,0,0,0,0,0,0,0,0,0,0,0,0,0,0,0,0,0,0,0,0,0,0,0,0,0,0,0,0,0,0,0,0,0,0,0,0,0,0,0,0,0,0,0,0,0,0,0,0,0,0,0,0,0,0,0,0,0,0,0,0,0,0,0,0,0,0,0,0,0,0,0,0,0],"split_type":[0,0,1,0,0,0,0,0,1,1,0,1,1,0,1,0,0,0,0,1,0,0,0,0,0,0,1,1,0,0,0,1,0,0,0,0,0,1,0,1,0,1,0,1,0,1,1,0,0,0,0,1,0,0,0,0,0,0,1,0,0,0,0,0,1,1,0,0,0,1,0,0,0,1,1,0,1,0,0,0,0,0,1,0,0,0,0,0,0,0,0,0,0,0,1,0,0,0,0,0,0,1,0,0,0,0,0,1,0,0,0,0,0,0,0,0,0,0,0,0,0,0,0,1,0,0,0,0,0,0,0,0,1,0,0,0,1,0,0,0,1,0,0,1,1,0,0,0,0,0,0,0,0,0,0,0,0,0,0,0,0,0,0,0,0,0,0,0,0,0,0,0,0,0,0,0,0,0,0,0,0,0,0,0,0,0,0,0,0,0,0,0,0,0,0,0,0,0,0,0,0,0,0,0,0,0,0,0,0,0,0,0,0,0,0,0,0,0,0,0,0,0,0,0,0,0,0,0,0,0,0,0,0,0,0,0,0,0,0,0,0,0,0,0,0],"sum_hessian":[1.347146E5,4.5007168E4,8.970743E4,4.337881E4,1.6283591E3,1.4725383E4,7.498205E4,2.9511467E4,1.3867343E4,3.0181372E2,1.4423568E4,1.6622164E4,5.8359883E4,2.5735203E4,3.7762622E3,7.816024E3,6.0513193E3,2.6248444E1,2.7556528E2,4.1125283E3,1.0311041E4,7.9465957E3,8.675568E3,2.7640861E4,3.0719021E4,7.938981E3,1.7796223E4,3.6584673E3,1.1779505E2,1.0340679E2,7.712617E3,4.886346E3,1.1649729E3,3.470513E3,6.4201514E2,1.0086908E4,2.2413232E2,5.1485767E2,7.431738E3,1.4416682E3,7.2339E3,3.4342756E3,2.4206586E4,2.6401246E4,4.3177754E3,6.686546E3,1.2524348E3,1.4918575E4,2.8776477E3,1.3354573E3,2.32301E3,1.12281746E2,5.5133047E0,7.6578433E3,5.4773766E1,4.2486597E3,6.3768646E2,6.097027E2,5.552702E2,3.3860479E3,8.4465164E1,2.3388873E2,4.0812637E2,1.4345566E1,1.00725625E4,1.2165127E2,1.0248106E2,4.6259052E1,4.685986E2,6.408149E3,1.02358905E3,5.0470108E1,1.3911981E3,5.4334126E3,1.8004874E3,4.8309006E2,2.9511858E3,1.1047631E4,1.3158955E4,3.505385E2,2.6050709E4,8.7621E2,3.4415654E3,5.0848076E3,1.6017385E3,1.0796658E3,1.7276903E2,1.4911316E4,7.259408E0,2.8065447E3,7.1103096E1,1.3105479E3,2.4909384E1,2.2263586E3,9.665149E1,7.216383E1,4.011791E1,5.3117695E3,2.3460737E3,4.0536062E3,1.9505373E2,6.927238E1,5.6841406E2,5.5843353E2,5.126913E1,5.146556E2,4.0614628E1,3.3152952E3,7.075265E1,1.8061742E2,5.3271313E1,2.9975122E2,1.0837516E2,1.0057669E4,1.4893591E1,8.423411E1,3.7417168E1,4.0838318E1,5.4207344E0,3.2185123E1,4.3641348E2,2.4434834E3,3.9646655E3,2.6702783E2,7.5656116E2,3.1651628E1,1.881848E1,2.1715855E1,1.3694822E3,2.6456335E3,2.787779E3,9.847275E2,8.1576E2,1.5817863E2,3.249114E2,1.9638708E3,9.873149E2,4.8109443E3,6.2366865E3,1.681044E3,1.1477911E4,2.1731358E2,1.3322495E2,1.3134608E2,2.5919361E4,2.9528555E1,8.4668146E2,1.6329261E3,1.8086393E3,5.0229683E3,6.1839474E1,1.5755134E3,2.6224985E1,1.0252803E3,5.4385513E1,1.3933305E2,3.3435978E1,1.3222393E4,1.6889238E3,2.7885251E3,1.801945E1,4.77437E1,2.3359394E1,1.2264465E3,8.410124E1,6.99102E1,2.1564482E3,6.0467706E0,9.060472E1,5.293913E3,1.7856611E1,2.2808132E3,6.526058E1,3.2057952E3,8.478111E2,1.63841E2,3.1212713E1,5.605323E1,1.3219145E1,5.287258E2,3.96882E1,8.362127E1,4.748123E2,2.174946E1,4.929061E2,3.0715385E1,9.899244E0,1.1646208E3,2.1506743E3,2.569161E2,4.2835114E1,1.3740868E3,8.683582E3,2.8604853E1,8.812314E0,4.255174E1,3.9386176E2,3.984071E1,2.4036426E3,3.7854218E2,3.5861233E3,2.3486194E2,3.2165897E1,5.9160046E2,1.649607E2,7.193014E0,1.45228405E1,2.8640577E1,1.3408417E3,2.4306218E3,2.1501175E2,6.9516656E2,2.0926123E3,4.4401508E2,5.407124E2,3.2817694E2,4.875831E2,1.2544976E2,3.2728867E1,1.9534264E3,1.0444425E1,8.182249E2,1.6908995E2,1.6562108E3,3.1547334E3,9.66615E2,5.270072E3,1.0081402E3,6.7290375E2,6.0854756E3,5.392436E3,1.4492774E1,2.028208E2,1.09111534E2,2.4113415E1,1.19423454E2,1.1922628E1,1.2216337E4,1.3703024E4,1.7827217E2,6.684093E2,4.3246802E2,1.2004581E3,1.7609814E3,4.765778E1],"tree_param":{"num_deleted":"0","num_feature":"161","num_nodes":"245","size_leaf_vector":"1"}},{"base_weights":[-1.2399651E-3,8.0311805E-1,-3.81616E-1,8.840345E-1,-2.7189097E-1,9.536732E-1,-6.221956E-1,1.0831528E0,3.8933527E-1,-6.885175E-1,9.985326E-1,-1.11515075E-1,-8.7388796E-1,1.169853E0,7.3396564E-1,7.949688E-1,3.6900967E-2,8.225616E-1,-1.3978764E0,5.872372E-1,1.1543584E0,4.7050896E-1,-3.9335197E-1,-5.030765E-1,-1.1194003E0,1.2043495E0,3.3542383E-1,8.147187E-1,-2.6171064E-1,-5.03867E-1,8.5976434E-1,-6.8008417E-1,3.4876868E-1,1.2389989E0,-2.5714457E-1,-2.7253395E-1,-3.910723E-1,6.712845E-1,-1.5440085E0,1.1811485E0,-2.834161E-1,-8.8482296E-1,5.790869E-1,-6.541811E-1,8.871806E-2,-1.3494309E0,-3.6103007E-1,3.6520642E-1,-1.1493775E0,1.0546079E0,1.2635139E0,8.733994E-1,-3.6467794E-1,8.5159236E-1,-1.0996665E0,5.245679E-1,-3.565919E-1,3.8584265E-1,-2.12259E0,9.034733E-1,-6.673001E-1,-1.1138438E0,2.8351876E-1,4.9045938E-1,-1.044928E0,1.3302184E0,1.1069031E-1,7.411762E-1,-3.0615258E-1,-2.712157E-1,-3.2816398E-1,8.546557E-1,1.232341E0,-1.3445581E0,2.5260293E-1,-2.9074064E-1,3.363292E-1,6.482236E-1,-2.1141948E-1,-3.345263E-1,-1.0130525E0,3.744261E-1,-6.0407686E-1,-8.429112E-1,-1.4323412E0,8.6918265E-1,-4.497298E-1,-1.1121519E0,1.1781626E0,-1.2366593E0,-7.3426664E-1,1.0690184E0,-2.0845046E0,1.3132505E0,1.0973538E0,9.513611E-1,-4.7388482E-1,3.0462664E-1,-1.9303412E0,1.2213082E0,7.1531117E-1,1.210216E0,-1.8639375E0,8.2572865E-1,-1.5709517E0,1.3782299E0,-1.7659256E0,-2.1923954E0,-2.78873E-1,9.2780954E-1,-3.673625E-1,2.6884574E-1,-1.8175316E0,-3.560163E-1,-1.5968312E0,1.0783858E0,-5.168744E-1,5.520506E-1,-9.4596195E-1,-1.6499277E0,3.7782818E-1,1.6474293E-1,2.7281865E-1,8.969724E-1,-1.9174701E-1,1.3605967E0,-5.177519E-1,1.2373501E0,-2.9338E-1,-1.480176E0,-2.968688E-4,1.2300885E0,-5.280023E-1,3.478749E-1,8.224936E-1,2.0466155E-1,-1.7788049E0,-4.7629748E-2,-8.5370886E-1,-1.3297337E-1,-1.1239976E0,5.418067E-1,-6.0531706E-1,-7.387341E-3,-1.1657754E0,-1.9924298E-1,-2.8834486E-1,-1.438368E0,2.280281E-1,1.1609257E0,-1.2655555E0,-7.639559E-1,-5.76016E-2,3.2885978E-1,-1.3310426E0,1.4667244E0,-3.143786E-1,-1.2529137E0,4.5792672E-1,-1.2602895E0,-3.3682382E-1,2.1476768E-1,-6.0985357E-1,-5.328721E-1,-2.5753452E-2,2.6313546E-1,-4.4595224E-1,2.3543589E-1,3.2952048E-2,1.0873299E-1,2.551797E-1,-4.2232394E-1,1.2210991E-1,-3.4239388E-1,1.397833E-1,-4.2325178E-1,-2.8956985E-1,-2.7527443E-1,2.5184515E-1,-1.7398581E-1,1.5018398E-1,2.7370924E-1,1.5302208E-1,-4.0743867E-1,2.9091606E-2,2.0778096E-1,-2.750498E-1,-4.4393736E-1,2.4513505E-1,2.8046533E-1,1.7636095E-1,-3.934158E-1,-2.8007016E-1,-4.0483403E-1,-5.6704396E-1,1.8922798E-1,-3.7752187E-1,-4.039608E-1,-3.2036826E-1,-2.2090833E-1,9.336743E-2,4.0388308E-3,-3.4091777E-1,2.523047E-1,-3.2808453E-1,5.3861607E-2,-3.312218E-1,3.1769336E-3,1.4119403E-1,-3.0427495E-1,2.900854E-1,1.1803248E-1,-3.4096414E-1,-3.2872277E-1,2.6700026E-1,1.8616037E-1,-3.4634265E-1,8.344734E-2,-3.4572718E-1,1.0682426E-1,2.7337477E-1,-3.290514E-1,1.8932003E-1,2.4799769E-1,-3.1523868E-1,-4.174057E-1,-2.699346E-1,2.8515223E-1,-2.3459564E-1,2.7813253E-1,-2.7423856E-1,9.692586E-2,-4.028059E-1,1.8238612E-1,1.7073227E-2,-1.815782E-1,1.7445038E-1,-2.9093492E-1,-4.0096995E-1,-2.5511608E-1,4.3992314E-2,-2.4655116E-1,-4.0590193E-2,1.7674764E-1,-1.6057958E-1,-1.5696745E-1,-2.8795418E-1,1.5440057E-2,1.9846125E-1,1.8679918E-1,-2.8253508E-1,-1.406614E-1,2.6987752E-1,8.712209E-3,-3.2588425E-1,1.2514743E-1,-2.8669515E-1,-2.7844337E-1,-3.0535495E-1,2.5387028E-1,-3.564661E-1,-5.756147E-2,-3.494437E-1,-2.2946892E-2,-2.3431428E-1,2.8553892E-2,-2.6410025E-1,2.852796E-1,-2.8887352E-1,3.0383655E-1,-2.983377E-1,-2.0852196E-1,-2.6719603E-1,3.4955257E-1,-2.8790843E-1,-2.7643943E-2,-2.715513E-1,2.5585467E-1,-1.472461E-1],"categories":[0,1,2,3,5,6,7,8,9,10,11,12,14,15,16,17,18,19,20,21,22,23,24,25,26,27,29,30,31,32,33,34,35,36,37,39,40,41,43,44,46,47,48,49,51,52,53,54,55,56,57,58,59,60,61,62,63,65,66,68,69,70,71,72,73,74,75,76,77,78,79,80,81,82,83,85,86,87,88,91,92,93,94,95,96,97,98,99,100,102,103,105,106,107,108,109,110,111,112,113,115,116,117,119,120,121,123,125,126,127,128,131,132,133,134,135,136,137,138,139,140,141,142,143,146,147,148,149,150,151,152,0,2,3,4,6,7,8,9,10,11,12,14,15,16,17,18,19,20,21,22,23,24,25,26,27,28,30,31,32,33,34,35,37,38,39,45,46,47,48,49,50,51,54,56,57,58,59,60,61,62,63,64,66,67,68,69,72,73,75,78,79,80,81,82,83,84,85,86,87,88,90,91,92,93,94,95,96,97,98,99,103,104,105,106,107,109,111,114,115,117,118,119,120,121,122,123,127,129,130,131,132,133,134,136,137,138,139,140,141,142,144,146,147,148,150,151,152,0,2,3,4,5,6,7,8,9,10,11,12,13,14,16,17,18,19,20,21,22,23,24,25,26,27,28,30,34,35,0,3,4,7,8,9,10,11,13,14,15,16,17,18,19,20,21,22,24,25,26,27,28,32,33,35,36,37,38,39,40,42,43,44,45,46,47,48,50,51,52,54,58,62,64,65,66,67,68,69,71,72,73,74,77,78,79,83,84,85,87,89,90,92,93,94,95,96,98,99,100,101,104,105,106,107,108,109,111,113,114,116,118,119,120,121,122,124,125,126,127,128,129,130,131,134,135,136,137,138,140,141,144,145,147,148,150,151,152,0,1,2,3,6,7,8,11,14,15,18,19,21,23,24,26,31,33,35,37,40,41,43,44,47,54,56,58,61,62,65,72,73,76,78,80,81,86,88,91,93,94,99,100,102,103,105,108,110,113,115,117,123,125,127,132,133,138,139,143,146,147,151,10,16,17,19,20,24,25,27,29,32,33,35,37,38,40,42,51,63,64,66,67,69,72,81,83,85,87,90,91,97,106,109,114,120,123,131,134,137,138,139,141,150,152,0,26,44,65,91,105,1,15,17,26,30,35,0,9,14,15,18,21,24,26,33,35,36,48,58,62,68,73,74,78,87,93,100,108,113,116,121,126,134,147,150,151,152,1,2,3,4,5,6,7,9,10,12,13,14,16,17,18,19,20,21,22,23,24,25,26,27,28,29,30,31,32,33,34,35,37,38,39,40,41,42,43,44,45,46,47,48,49,50,51,52,53,54,55,56,57,58,59,60,61,62,63,64,65,66,67,69,70,72,73,75,76,77,78,79,80,81,82,83,84,85,86,87,88,89,90,91,92,93,94,95,96,97,98,99,101,102,103,104,105,106,107,108,109,110,111,112,114,115,117,118,119,120,127,128,5,9,12,20,30,34,36,46,48,49,53,55,57,59,60,63,68,70,74,75,79,92,96,97,107,112,116,121,128,134,140,150,152,1,3,5,6,10,12,16,17,18,19,20,21,22,23,24,25,27,29,30,31,32,33,34,35,37,38,40,42,43,44,48,49,51,55,60,61,63,64,66,67,69,70,72,78,79,80,81,82,83,84,85,86,87,90,91,92,93,95,97,101,103,105,106,108,109,112,113,114,115,118,119,120,121,122,123,127,130,131,134,136,137,138,139,140,141,142,144,146,150,152,0,1,2,3,4,5,6,7,8,9,10,11,12,13,14,15,16,17,33,40,81,138,0,3,4,5,6,7,8,9,10,11,12,13,14,15,17,19,20,21,22,23,24,25,26,27,28,30,31,32,33,34,35,37,38,39,40,41,42,43,44,45,46,47,48,49,50,51,52,53,54,55,56,57,59,60,61,62,63,64,65,66,67,68,69,70,71,72,73,74,75,77,79,80,81,82,83,84,85,86,87,88,90,91,92,93,94,95,96,97,98,99,101,102,103,104,105,106,107,108,109,111,112,113,114,115,117,118,119,122,124,126,127,129,130,131,132,135,136,137,138,139,140,141,142,143,144,145,146,147,148,149,150,151,152,0,1,4,10,0,1,2,4,5,6,7,8,9,10,11,12,13,14,15,16,17,18,19,20,21,22,26,0,3,8,11,15,26,30,57,58,59,61,79,103,105,121,127,133,140,147,1,2,3,4,5,6,7,9,10,12,13,14,16,17,18,19,20,21,47,58,98,105,0,1,2,3,4,5,6,7,8,9,10,11,12,13,14,15,16,17,18,19,20,21,22,23,24,25,26,27,28,29,30,31,32,33,34,35,36,37,39,40,41,42,43,44,45,46,47,48,49,51,52,53,54,55,56,57,58,59,60,61,62,63,64,65,66,67,68,69,70,71,72,73,74,75,76,77,78,79,80,81,82,83,84,85,86,87,88,89,90,91,92,93,94,95,96,97,98,99,100,101,102,103,104,105,106,107,108,109,110,111,112,113,115,116,117,119,120,121,123,124,125,126,127,128,129,131,132,133,134,135,136,137,138,139,140,141,142,143,146,147,148,149,150,151,152,13,0,1,2,3,4,5,6,7,8,9,10,11,12,13,14,15,16,17,18,19,20,21,22,23,24,25,26,27,28,29,30,31,32,33,34,35,36,37,38,39,40,41,42,43,44,45,46,47,48,49,50,51,52,53,54,56,58,60,61,62,63,64,65,66,67,68,69,70,71,72,73,74,75,76,77,78,79,80,81,82,83,84,85,86,87,88,89,90,91,92,93,94,95,96,97,98,99,100,101,102,103,104,105,106,107,108,109,110,111,112,113,114,115,116,117,118,119,120,121,122,123,124,125,126,127,128,129,130,131,132,133,134,135,136,137,138,139,140,141,142,143,144,145,146,147,148,149,150,151,152,0,0,1,2,3,4,6,7,8,10,11,12,13,14,15,16,17,18,19,21,22,23,24,25,26,27,28,29,31,32,33,34,35,36,37,38,39,40,41,42,43,44,45,46,47,48,49,50,51,52,54,55,56,58,61,62,63,64,65,66,67,69,70,71,72,73,74,76,78,80,81,82,83,84,85,86,87,88,89,90,91,92,93,94,95,98,99,100,101,102,103,104,105,106,108,109,110,111,112,113,114,115,117,118,119,120,121,122,123,124,125,127,128,129,130,131,132,133,134,135,136,137,138,139,141,142,143,144,145,146,147,148,149,150,151,152,0,1,3,4,6,7,8,10,11,1,2,3,4,5,6,7,8,9,10,12,13,14,15,16,17,19,20,21,22,23,24,25,26,27,28,29,30,31,32,33,34,35,36,37,38,39,40,41,42,43,44,45,46,47,48,49,50,51,52,53,54,55,56,57,58,59,60,61,62,63,64,65,66,67,69,70,71,72,73,74,75,76,77,78,79,80,81,82,83,84,85,86,87,88,89,90,91,92,93,94,95,96,97,98,99,100,101,102,103,104,105,106,107,108,109,110,111,112,113,114,115,116,117,118,119,120,121,122,123,124,125,126,127,128,129,130,131,132,133,134,135,136,137,138,139,140,141,142,143,144,145,146,147,148,149,150,151,152,0,1,2,3,4,5,6,7,8,9,10,12,13,14,15,16,17,18,19,20,21,22,23,24,25,26,27,28,29,30,31,32,33,34,35,36,37,38,39,40,41,42,43,44,45,46,47,48,49,50,51,52,53,54,55,56,57,58,59,60,61,62,63,64,65,66,67,68,69,70,71,72,73,74,75,76,77,78,79,80,81,82,83,84,85,86,87,88,89,90,91,92,93,94,95,96,97,98,99,